%YAML:1.0
my_svm: !!opencv-ml-svm
   svm_type: C_SVC
   kernel: { type:RBF, gamma:0.0500000000000000 }
   C: 1.
   term_criteria: { epsilon:1.0000000474974513e-03, iterations:2147483647 }
   var_all: 19
   var_count: 19
   class_count: 2
   class_labels: !!opencv-matrix
      rows: 1
      cols: 2
      dt: i
      data: [ 0, 1 ]
   sv_total: 728
   support_vectors:
      - [ 1., 1., -1., -1., -1., -1., -1., -1., -1., -1., -1., -1., -1.,
          -1., -1., 1., -1., -1., -1. ]
      - [ -1., -1., 1., -1., 1., 1., -1., -1., -1., 1., 1., -1., -1., 1.,
          1., -1., 1., -1., -1. ]
      - [ -1., -1., -1., -1., -1., -1., 1., -1., -1., -1., -1., -1., -1.,
          -1., -1., -1., -1., 1., 1. ]
      - [ 1., 1., 1., 1., 1., 1., -1., -1., -1., 1., 1., -1., -1., 1.,
          1., 1., 1., -1., -1. ]
      - [ -1., -1., -1., -1., -1., -1., -1., -1., -1., -1., -1., -1.,
          -1., -1., -1., -1., -1., -1., -1. ]
      - [ -1., -1., -1., -1., -1., -1., -1., -1., -1., -1., -1., -1.,
          -1., -1., -1., -1., -1., -1., -1. ]
      - [ 1., -1., -1., -1., -1., -1., -1., -1., -1., -1., -1., -1., -1.,
          1., 1., 1., -1., -1., -1. ]
      - [ 1., 1., -1., -1., -1., -1., 1., 1., 1., -1., -1., 1., 1., 1.,
          1., -1., -1., 1., 1. ]
      - [ 1., -1., 1., 1., 1., 1., -1., -1., -1., 1., 1., -1., 1., 1.,
          1., -1., 1., -1., -1. ]
      - [ 1., 1., -1., -1., -1., -1., 1., -1., -1., -1., -1., -1., -1.,
          -1., -1., -1., -1., 1., 1. ]
      - [ 1., -1., -1., -1., -1., -1., -1., -1., -1., -1., -1., -1., -1.,
          -1., -1., -1., -1., -1., -1. ]
      - [ -1., -1., -1., -1., -1., -1., -1., -1., -1., -1., -1., -1.,
          -1., -1., -1., -1., -1., -1., -1. ]
      - [ -1., -1., -1., -1., -1., -1., -1., -1., -1., -1., -1., -1.,
          -1., -1., -1., -1., -1., -1., -1. ]
      - [ -1., -1., 1., -1., -1., -1., -1., -1., -1., 1., -1., -1., -1.,
          -1., -1., -1., 1., -1., -1. ]
      - [ -1., -1., -1., -1., -1., -1., 1., 1., 1., -1., -1., -1., -1.,
          1., 1., -1., -1., 1., 1. ]
      - [ 1., 1., -1., -1., -1., -1., -1., -1., -1., -1., -1., -1., -1.,
          -1., -1., 1., -1., -1., -1. ]
      - [ 1., 1., -1., -1., -1., -1., 1., 1., 1., -1., -1., -1., -1., 1.,
          1., -1., -1., 1., 1. ]
      - [ 1., 1., 1., 1., 1., 1., 1., -1., -1., 1., 1., -1., 1., 1., 1.,
          1., 1., 1., 1. ]
      - [ -1., -1., -1., -1., -1., -1., -1., -1., -1., -1., -1., -1.,
          -1., -1., -1., -1., -1., -1., -1. ]
      - [ 1., 1., 1., 1., 1., 1., -1., -1., -1., 1., 1., -1., 1., 1., 1.,
          1., 1., -1., -1. ]
      - [ -1., -1., -1., -1., -1., -1., -1., -1., -1., -1., -1., -1.,
          -1., -1., -1., 1., -1., -1., -1. ]
      - [ -1., -1., -1., -1., -1., -1., -1., -1., 1., -1., -1., 1., 1.,
          1., 1., -1., -1., 1., -1. ]
      - [ 1., 1., -1., -1., -1., -1., -1., -1., 1., -1., -1., -1., -1.,
          1., 1., 1., -1., 1., -1. ]
      - [ 1., -1., -1., -1., -1., -1., -1., -1., -1., -1., -1., -1., -1.,
          -1., -1., -1., -1., -1., -1. ]
      - [ 1., 1., -1., -1., -1., -1., 1., 1., 1., -1., -1., 1., 1., 1.,
          1., 1., -1., 1., 1. ]
      - [ 1., -1., -1., -1., -1., 1., 1., 1., 1., 1., 1., 1., 1., 1., 1.,
          1., 1., 1., 1. ]
      - [ 1., 1., 1., 1., 1., 1., -1., 1., 1., 1., 1., 1., 1., 1., 1.,
          1., 1., 1., 1. ]
      - [ -1., -1., -1., -1., -1., -1., -1., -1., -1., -1., -1., -1.,
          -1., -1., -1., -1., -1., -1., -1. ]
      - [ -1., -1., -1., -1., -1., -1., -1., -1., -1., -1., -1., -1.,
          -1., -1., -1., -1., -1., -1., -1. ]
      - [ 1., -1., -1., -1., -1., 1., -1., -1., 1., 1., 1., -1., -1., 1.,
          1., 1., 1., 1., -1. ]
      - [ 1., 1., -1., -1., -1., -1., -1., -1., -1., -1., -1., -1., -1.,
          -1., -1., 1., -1., 1., -1. ]
      - [ -1., -1., 1., -1., -1., -1., -1., -1., -1., 1., -1., -1., -1.,
          -1., -1., -1., 1., -1., -1. ]
      - [ -1., -1., -1., -1., -1., -1., -1., -1., -1., -1., -1., -1.,
          -1., -1., -1., -1., -1., -1., -1. ]
      - [ -1., -1., -1., -1., -1., -1., -1., -1., -1., -1., -1., -1.,
          -1., -1., -1., -1., -1., -1., -1. ]
      - [ -1., -1., -1., -1., -1., 1., -1., -1., -1., -1., -1., -1., -1.,
          1., 1., -1., 1., -1., -1. ]
      - [ 1., -1., -1., -1., -1., -1., -1., -1., -1., -1., -1., -1., -1.,
          -1., -1., 1., -1., -1., -1. ]
      - [ 1., -1., 1., -1., 1., 1., -1., -1., -1., 1., 1., -1., -1., 1.,
          1., 1., 1., 1., -1. ]
      - [ -1., -1., -1., -1., -1., -1., 1., 1., 1., -1., -1., -1., -1.,
          1., 1., 1., -1., 1., 1. ]
      - [ 1., -1., -1., -1., -1., -1., -1., -1., -1., -1., -1., -1., -1.,
          -1., -1., 1., -1., 1., -1. ]
      - [ 1., 1., -1., -1., -1., -1., -1., -1., -1., -1., -1., -1., -1.,
          -1., -1., 1., -1., 1., -1. ]
      - [ -1., -1., -1., -1., -1., -1., -1., -1., -1., -1., -1., -1.,
          -1., -1., -1., -1., -1., -1., -1. ]
      - [ -1., -1., -1., -1., -1., -1., -1., -1., -1., -1., -1., -1.,
          -1., -1., -1., 1., -1., -1., -1. ]
      - [ -1., -1., -1., -1., -1., -1., -1., -1., -1., -1., -1., -1.,
          -1., 1., 1., 1., -1., -1., -1. ]
      - [ -1., -1., -1., -1., -1., -1., -1., -1., -1., -1., -1., -1.,
          -1., -1., -1., -1., -1., -1., -1. ]
      - [ -1., -1., 1., 1., 1., 1., -1., -1., -1., 1., 1., -1., 1., 1.,
          1., -1., 1., -1., -1. ]
      - [ 1., 1., -1., -1., -1., -1., -1., -1., -1., -1., -1., -1., -1.,
          1., 1., -1., -1., -1., -1. ]
      - [ 1., 1., -1., -1., -1., -1., 1., 1., 1., -1., -1., -1., -1., 1.,
          1., 1., -1., 1., 1. ]
      - [ -1., -1., -1., -1., -1., -1., -1., -1., -1., -1., -1., -1.,
          -1., -1., -1., -1., -1., -1., -1. ]
      - [ 1., 1., -1., -1., -1., -1., -1., 1., 1., -1., -1., -1., -1.,
          1., 1., 1., -1., 1., 1. ]
      - [ 1., 1., -1., -1., -1., -1., 1., 1., 1., -1., -1., 1., 1., 1.,
          1., 1., -1., 1., 1. ]
      - [ -1., -1., -1., -1., -1., -1., -1., -1., -1., -1., -1., -1.,
          -1., -1., -1., -1., -1., -1., -1. ]
      - [ 1., -1., -1., -1., -1., -1., -1., -1., -1., -1., -1., -1., -1.,
          -1., -1., 1., -1., -1., -1. ]
      - [ 1., 1., -1., -1., -1., -1., -1., 1., 1., -1., -1., 1., 1., 1.,
          1., 1., -1., 1., 1. ]
      - [ 1., 1., -1., -1., -1., -1., -1., -1., -1., -1., -1., -1., -1.,
          -1., -1., -1., -1., 1., 1. ]
      - [ 1., 1., 1., 1., 1., 1., 1., 1., 1., 1., 1., 1., 1., 1., 1., 1.,
          1., 1., 1. ]
      - [ -1., -1., -1., -1., -1., -1., -1., -1., -1., -1., -1., -1.,
          -1., -1., -1., -1., -1., -1., -1. ]
      - [ 1., 1., 1., 1., 1., 1., 1., 1., 1., 1., 1., 1., 1., 1., 1., 1.,
          1., 1., 1. ]
      - [ 1., 1., 1., -1., -1., -1., -1., -1., -1., 1., -1., -1., -1.,
          -1., -1., 1., 1., 1., 1. ]
      - [ 1., -1., -1., -1., -1., -1., -1., -1., -1., -1., -1., -1., -1.,
          -1., -1., 1., -1., 1., 1. ]
      - [ 1., 1., -1., -1., -1., -1., -1., -1., -1., -1., -1., -1., -1.,
          -1., -1., 1., -1., -1., -1. ]
      - [ 1., 1., 1., 1., 1., 1., 1., 1., 1., 1., 1., 1., 1., 1., 1., 1.,
          1., 1., 1. ]
      - [ -1., -1., -1., -1., -1., -1., 1., 1., 1., -1., -1., 1., 1., 1.,
          1., 1., -1., 1., 1. ]
      - [ 1., 1., 1., 1., 1., 1., 1., -1., -1., 1., 1., -1., 1., 1., 1.,
          1., 1., 1., 1. ]
      - [ 1., 1., -1., -1., -1., -1., 1., -1., -1., -1., -1., -1., -1.,
          -1., -1., 1., -1., 1., 1. ]
      - [ -1., -1., -1., -1., -1., -1., 1., 1., 1., -1., -1., -1., -1.,
          1., 1., 1., -1., 1., 1. ]
      - [ -1., -1., -1., -1., -1., -1., -1., -1., -1., -1., -1., -1.,
          -1., -1., -1., 1., -1., -1., -1. ]
      - [ -1., -1., -1., -1., -1., -1., -1., -1., -1., -1., -1., -1.,
          -1., -1., -1., -1., -1., -1., -1. ]
      - [ -1., -1., -1., -1., -1., -1., -1., -1., -1., -1., -1., -1.,
          -1., -1., -1., -1., -1., 1., -1. ]
      - [ -1., -1., -1., -1., -1., -1., 1., -1., -1., -1., -1., -1., -1.,
          -1., -1., 1., -1., 1., 1. ]
      - [ -1., -1., -1., -1., -1., -1., -1., -1., -1., -1., -1., -1.,
          -1., -1., -1., 1., -1., -1., -1. ]
      - [ 1., 1., -1., -1., -1., -1., -1., -1., -1., -1., -1., -1., -1.,
          1., 1., -1., -1., 1., 1. ]
      - [ -1., -1., -1., -1., -1., -1., -1., -1., 1., -1., -1., -1., -1.,
          1., 1., -1., -1., 1., -1. ]
      - [ -1., -1., -1., -1., -1., -1., -1., -1., -1., -1., -1., -1.,
          -1., -1., -1., -1., -1., -1., -1. ]
      - [ -1., -1., -1., -1., -1., -1., -1., -1., -1., -1., -1., -1.,
          -1., -1., -1., 1., -1., -1., -1. ]
      - [ -1., -1., -1., -1., -1., -1., -1., -1., -1., -1., -1., -1.,
          -1., -1., -1., -1., -1., -1., -1. ]
      - [ 1., 1., -1., -1., -1., -1., -1., -1., 1., -1., -1., -1., -1.,
          1., 1., -1., -1., 1., -1. ]
      - [ -1., -1., -1., -1., -1., -1., -1., -1., -1., -1., -1., -1.,
          -1., -1., -1., -1., -1., -1., -1. ]
      - [ -1., -1., -1., -1., -1., -1., -1., -1., -1., -1., -1., -1.,
          -1., -1., -1., -1., -1., -1., -1. ]
      - [ 1., 1., 1., 1., 1., 1., -1., -1., -1., 1., 1., -1., 1., 1., 1.,
          1., 1., -1., -1. ]
      - [ -1., -1., -1., -1., -1., -1., -1., -1., -1., -1., -1., -1.,
          -1., -1., -1., -1., -1., 1., 1. ]
      - [ -1., -1., -1., -1., -1., -1., -1., -1., -1., -1., -1., -1.,
          -1., -1., -1., 1., -1., 1., 1. ]
      - [ -1., -1., -1., -1., -1., -1., -1., -1., -1., -1., -1., -1.,
          -1., -1., -1., -1., -1., -1., -1. ]
      - [ -1., -1., 1., 1., 1., 1., -1., -1., -1., 1., 1., -1., 1., 1.,
          1., -1., 1., -1., -1. ]
      - [ -1., -1., -1., -1., -1., -1., 1., 1., 1., -1., -1., 1., 1., 1.,
          1., -1., -1., 1., 1. ]
      - [ 1., 1., 1., 1., 1., 1., -1., -1., -1., 1., 1., -1., 1., 1., 1.,
          1., 1., -1., -1. ]
      - [ 1., 1., -1., -1., -1., -1., 1., -1., -1., -1., -1., -1., -1.,
          -1., -1., 1., -1., 1., 1. ]
      - [ 1., 1., -1., -1., -1., -1., 1., -1., -1., -1., -1., -1., -1.,
          -1., -1., -1., -1., 1., 1. ]
      - [ 1., 1., -1., -1., -1., -1., -1., 1., 1., -1., -1., -1., -1.,
          1., 1., 1., -1., 1., 1. ]
      - [ 1., 1., -1., -1., -1., -1., -1., -1., 1., -1., -1., -1., -1.,
          1., 1., 1., -1., 1., -1. ]
      - [ -1., -1., 1., -1., 1., 1., -1., -1., -1., 1., 1., -1., -1., 1.,
          1., -1., 1., -1., -1. ]
      - [ -1., -1., -1., -1., -1., -1., 1., 1., 1., -1., -1., -1., -1.,
          1., 1., -1., -1., 1., 1. ]
      - [ -1., -1., 1., -1., 1., 1., -1., -1., -1., 1., 1., -1., -1., 1.,
          1., -1., 1., -1., -1. ]
      - [ 1., 1., -1., -1., -1., -1., 1., 1., 1., -1., -1., 1., 1., 1.,
          1., 1., -1., 1., 1. ]
      - [ -1., -1., -1., -1., -1., -1., -1., -1., -1., -1., -1., -1.,
          -1., -1., -1., -1., -1., -1., -1. ]
      - [ 1., 1., -1., -1., -1., 1., -1., -1., -1., -1., -1., -1., -1.,
          1., 1., -1., 1., -1., -1. ]
      - [ -1., -1., -1., -1., -1., -1., 1., 1., 1., -1., -1., 1., 1., 1.,
          1., -1., -1., 1., 1. ]
      - [ 1., 1., -1., -1., -1., -1., -1., -1., -1., -1., -1., -1., -1.,
          -1., 1., -1., -1., -1., -1. ]
      - [ -1., -1., -1., -1., -1., -1., 1., 1., 1., -1., -1., 1., 1., 1.,
          1., -1., -1., 1., 1. ]
      - [ 1., 1., 1., 1., 1., 1., 1., 1., 1., 1., 1., 1., 1., 1., 1., 1.,
          1., 1., 1. ]
      - [ 1., -1., 1., 1., 1., 1., -1., -1., -1., 1., 1., -1., 1., 1.,
          1., 1., 1., -1., -1. ]
      - [ -1., -1., -1., -1., -1., -1., -1., -1., -1., -1., -1., -1.,
          -1., -1., -1., 1., -1., -1., -1. ]
      - [ -1., -1., -1., -1., -1., -1., -1., -1., -1., -1., -1., -1.,
          -1., 1., 1., -1., -1., -1., -1. ]
      - [ -1., -1., -1., -1., -1., -1., -1., -1., -1., -1., -1., -1., 1.,
          1., 1., -1., -1., -1., -1. ]
      - [ -1., -1., 1., -1., 1., 1., -1., -1., -1., 1., 1., -1., -1., 1.,
          1., 1., 1., -1., -1. ]
      - [ -1., -1., -1., -1., -1., -1., -1., -1., 1., -1., -1., 1., 1.,
          1., 1., -1., -1., 1., -1. ]
      - [ -1., -1., 1., 1., 1., 1., -1., -1., 1., 1., 1., 1., 1., 1., 1.,
          1., 1., 1., -1. ]
      - [ -1., -1., -1., -1., -1., -1., -1., -1., -1., -1., -1., -1.,
          -1., -1., -1., -1., -1., -1., -1. ]
      - [ -1., -1., -1., -1., -1., -1., -1., -1., -1., -1., -1., -1.,
          -1., -1., -1., -1., -1., -1., -1. ]
      - [ 1., 1., -1., -1., -1., -1., 1., -1., -1., -1., -1., -1., -1.,
          -1., -1., -1., -1., 1., 1. ]
      - [ -1., -1., -1., -1., -1., -1., -1., -1., -1., -1., -1., -1.,
          -1., -1., -1., -1., -1., -1., -1. ]
      - [ 1., 1., -1., -1., -1., -1., -1., -1., 1., -1., -1., 1., 1., 1.,
          1., 1., -1., 1., -1. ]
      - [ -1., -1., -1., -1., -1., -1., -1., -1., 1., -1., -1., -1., -1.,
          1., 1., -1., -1., 1., 1. ]
      - [ 1., 1., -1., -1., -1., -1., -1., -1., 1., -1., -1., 1., 1., 1.,
          1., -1., -1., 1., -1. ]
      - [ -1., -1., -1., -1., -1., -1., -1., -1., -1., -1., -1., -1.,
          -1., -1., -1., -1., -1., -1., -1. ]
      - [ 1., -1., -1., -1., -1., -1., 1., 1., 1., -1., -1., 1., 1., 1.,
          1., 1., -1., 1., 1. ]
      - [ -1., -1., -1., -1., -1., -1., -1., -1., -1., -1., -1., -1.,
          -1., -1., -1., -1., -1., -1., -1. ]
      - [ 1., 1., -1., -1., -1., -1., -1., -1., -1., -1., -1., -1., -1.,
          1., 1., -1., -1., -1., -1. ]
      - [ -1., -1., -1., -1., -1., -1., -1., -1., -1., -1., -1., -1.,
          -1., -1., -1., 1., -1., 1., 1. ]
      - [ -1., -1., -1., -1., -1., -1., -1., -1., 1., -1., -1., 1., 1.,
          1., 1., -1., -1., 1., -1. ]
      - [ -1., -1., -1., -1., -1., -1., -1., -1., -1., -1., -1., -1.,
          -1., -1., -1., -1., -1., -1., -1. ]
      - [ 1., 1., -1., -1., -1., -1., -1., 1., 1., -1., -1., -1., -1.,
          1., 1., 1., -1., 1., 1. ]
      - [ 1., -1., 1., 1., 1., 1., -1., -1., -1., 1., 1., -1., 1., 1.,
          1., 1., 1., -1., -1. ]
      - [ 1., 1., -1., -1., -1., -1., -1., -1., 1., -1., -1., -1., 1.,
          1., 1., 1., -1., 1., 1. ]
      - [ -1., -1., 1., -1., 1., 1., -1., -1., -1., 1., 1., -1., -1., 1.,
          1., -1., 1., -1., -1. ]
      - [ -1., -1., -1., -1., -1., -1., -1., -1., 1., -1., -1., 1., 1.,
          1., 1., -1., -1., 1., -1. ]
      - [ 1., -1., -1., -1., -1., -1., -1., -1., -1., -1., -1., -1., 1.,
          1., 1., 1., -1., -1., -1. ]
      - [ -1., -1., -1., -1., -1., 1., -1., -1., -1., -1., -1., -1., -1.,
          1., 1., -1., 1., -1., -1. ]
      - [ 1., 1., -1., -1., -1., -1., -1., -1., -1., 1., -1., -1., -1.,
          -1., -1., 1., 1., -1., -1. ]
      - [ -1., -1., -1., -1., -1., -1., 1., 1., 1., -1., -1., 1., 1., 1.,
          1., -1., -1., 1., 1. ]
      - [ -1., -1., -1., -1., -1., -1., -1., -1., -1., -1., -1., -1.,
          -1., -1., -1., -1., -1., -1., -1. ]
      - [ -1., -1., -1., -1., -1., -1., -1., -1., -1., -1., -1., -1.,
          -1., -1., -1., -1., -1., -1., -1. ]
      - [ -1., -1., -1., -1., -1., -1., -1., -1., -1., -1., -1., -1.,
          -1., -1., -1., -1., -1., -1., -1. ]
      - [ -1., -1., -1., -1., -1., -1., -1., -1., -1., -1., -1., -1.,
          -1., -1., -1., -1., -1., -1., -1. ]
      - [ -1., -1., -1., -1., -1., 1., -1., -1., -1., -1., -1., -1., -1.,
          1., 1., 1., 1., -1., -1. ]
      - [ -1., -1., -1., -1., -1., -1., -1., -1., -1., -1., -1., -1.,
          -1., -1., -1., 1., -1., -1., -1. ]
      - [ -1., -1., -1., -1., -1., -1., -1., -1., -1., -1., -1., -1.,
          -1., -1., -1., -1., -1., -1., -1. ]
      - [ -1., -1., -1., -1., -1., -1., 1., 1., 1., -1., -1., 1., 1., 1.,
          1., -1., -1., 1., 1. ]
      - [ -1., -1., -1., -1., -1., -1., -1., -1., -1., -1., -1., -1.,
          -1., -1., -1., -1., -1., 1., 1. ]
      - [ -1., -1., -1., -1., -1., -1., -1., -1., -1., -1., -1., -1.,
          -1., -1., -1., 1., -1., 1., 1. ]
      - [ 1., 1., -1., -1., -1., -1., -1., -1., -1., 1., -1., -1., -1.,
          -1., -1., 1., 1., -1., -1. ]
      - [ 1., 1., -1., -1., -1., -1., -1., -1., 1., -1., -1., 1., 1., 1.,
          1., 1., -1., 1., -1. ]
      - [ 1., 1., 1., -1., -1., -1., -1., -1., -1., 1., -1., -1., -1.,
          -1., -1., 1., 1., -1., -1. ]
      - [ 1., 1., 1., 1., 1., 1., 1., 1., 1., 1., 1., -1., -1., 1., 1.,
          1., 1., 1., 1. ]
      - [ 1., 1., 1., -1., -1., -1., 1., -1., -1., 1., -1., -1., -1.,
          -1., -1., 1., 1., 1., 1. ]
      - [ -1., -1., -1., -1., -1., -1., -1., -1., -1., -1., -1., -1.,
          -1., -1., -1., 1., -1., -1., -1. ]
      - [ -1., -1., -1., -1., -1., -1., -1., -1., -1., -1., -1., -1.,
          -1., -1., -1., -1., -1., -1., -1. ]
      - [ -1., -1., -1., -1., -1., -1., 1., 1., 1., -1., -1., 1., 1., 1.,
          1., 1., -1., 1., 1. ]
      - [ -1., -1., -1., -1., -1., -1., -1., -1., -1., -1., -1., -1.,
          -1., -1., -1., 1., -1., -1., -1. ]
      - [ 1., -1., -1., -1., -1., -1., -1., -1., -1., -1., -1., -1., -1.,
          -1., -1., 1., -1., 1., 1. ]
      - [ -1., -1., -1., -1., -1., -1., 1., 1., 1., -1., -1., -1., -1.,
          1., 1., -1., -1., 1., 1. ]
      - [ -1., -1., -1., -1., -1., -1., -1., -1., -1., -1., -1., -1.,
          -1., -1., -1., 1., -1., -1., -1. ]
      - [ 1., -1., -1., -1., -1., -1., -1., -1., -1., -1., -1., -1., -1.,
          -1., -1., -1., -1., -1., -1. ]
      - [ 1., 1., 1., -1., 1., 1., -1., -1., -1., 1., 1., -1., -1., 1.,
          1., -1., 1., -1., -1. ]
      - [ -1., -1., -1., -1., -1., -1., -1., -1., -1., -1., -1., -1.,
          -1., -1., -1., 1., -1., -1., -1. ]
      - [ -1., -1., -1., -1., -1., -1., -1., -1., -1., -1., -1., -1.,
          -1., -1., -1., -1., -1., -1., -1. ]
      - [ 1., 1., -1., -1., -1., -1., 1., -1., -1., -1., -1., -1., -1.,
          -1., -1., 1., -1., 1., 1. ]
      - [ 1., 1., -1., -1., -1., 1., -1., -1., -1., 1., 1., -1., -1., 1.,
          1., 1., 1., -1., -1. ]
      - [ 1., -1., -1., -1., -1., -1., -1., -1., -1., -1., -1., -1., -1.,
          -1., -1., -1., -1., -1., -1. ]
      - [ 1., 1., 1., -1., 1., 1., -1., -1., -1., 1., 1., -1., -1., 1.,
          1., -1., 1., -1., -1. ]
      - [ 1., -1., -1., -1., -1., -1., -1., -1., -1., -1., -1., -1., -1.,
          -1., -1., 1., -1., 1., 1. ]
      - [ -1., -1., -1., -1., -1., -1., -1., -1., -1., -1., -1., -1.,
          -1., -1., -1., 1., -1., -1., -1. ]
      - [ -1., -1., -1., -1., -1., -1., -1., -1., -1., -1., -1., -1.,
          -1., -1., -1., -1., -1., -1., -1. ]
      - [ 1., 1., 1., 1., 1., 1., -1., -1., -1., 1., 1., -1., 1., 1., 1.,
          1., 1., -1., -1. ]
      - [ -1., -1., -1., -1., -1., -1., 1., 1., 1., -1., -1., 1., 1., 1.,
          1., -1., -1., 1., 1. ]
      - [ 1., 1., 1., -1., 1., 1., 1., 1., 1., 1., -1., -1., -1., 1., 1.,
          1., 1., 1., 1. ]
      - [ 1., 1., -1., -1., -1., -1., -1., -1., -1., -1., -1., -1., -1.,
          1., 1., -1., -1., -1., -1. ]
      - [ -1., -1., -1., -1., -1., -1., -1., -1., -1., -1., -1., -1.,
          -1., -1., -1., -1., -1., -1., -1. ]
      - [ 1., 1., -1., -1., -1., -1., 1., 1., 1., -1., -1., 1., 1., 1.,
          1., 1., -1., 1., 1. ]
      - [ 1., 1., 1., 1., 1., 1., -1., -1., -1., 1., 1., -1., -1., 1.,
          1., 1., 1., -1., -1. ]
      - [ 1., -1., -1., -1., -1., -1., -1., -1., -1., -1., -1., -1., -1.,
          -1., -1., -1., -1., -1., -1. ]
      - [ -1., -1., -1., -1., -1., -1., -1., -1., -1., -1., -1., -1.,
          -1., -1., -1., 1., -1., -1., -1. ]
      - [ -1., -1., -1., -1., -1., -1., -1., -1., -1., -1., -1., -1.,
          -1., -1., -1., -1., -1., -1., -1. ]
      - [ -1., -1., -1., -1., -1., -1., -1., -1., -1., -1., -1., -1.,
          -1., -1., -1., -1., -1., -1., -1. ]
      - [ 1., 1., 1., 1., 1., 1., -1., 1., 1., 1., 1., 1., 1., 1., 1.,
          1., 1., 1., 1. ]
      - [ 1., 1., 1., 1., 1., 1., -1., -1., -1., 1., 1., -1., 1., 1., 1.,
          1., 1., -1., -1. ]
      - [ 1., 1., 1., 1., 1., 1., -1., -1., 1., 1., 1., 1., 1., 1., 1.,
          -1., 1., 1., -1. ]
      - [ -1., -1., -1., -1., -1., -1., -1., -1., 1., -1., -1., -1., -1.,
          1., 1., -1., -1., 1., -1. ]
      - [ 1., -1., 1., 1., 1., 1., 1., 1., 1., 1., 1., 1., 1., 1., 1.,
          1., 1., 1., 1. ]
      - [ 1., 1., -1., -1., -1., -1., 1., -1., -1., -1., -1., -1., -1.,
          -1., -1., -1., -1., 1., 1. ]
      - [ 1., 1., -1., -1., -1., -1., 1., 1., 1., -1., -1., -1., -1., 1.,
          1., 1., -1., 1., 1. ]
      - [ 1., 1., -1., -1., -1., -1., 1., 1., 1., -1., -1., -1., -1., 1.,
          1., 1., -1., 1., 1. ]
      - [ -1., -1., -1., -1., -1., -1., -1., -1., -1., -1., -1., -1.,
          -1., -1., -1., 1., -1., -1., -1. ]
      - [ 1., 1., -1., -1., -1., -1., -1., -1., -1., -1., -1., -1., -1.,
          -1., -1., -1., -1., 1., -1. ]
      - [ 1., 1., -1., -1., -1., -1., 1., 1., 1., -1., -1., 1., 1., 1.,
          1., 1., -1., 1., 1. ]
      - [ 1., 1., 1., -1., 1., 1., -1., -1., -1., 1., 1., -1., -1., 1.,
          1., -1., 1., -1., -1. ]
      - [ 1., 1., 1., 1., 1., 1., 1., -1., -1., 1., 1., -1., -1., 1., 1.,
          -1., 1., 1., 1. ]
      - [ 1., 1., 1., 1., 1., 1., 1., 1., 1., 1., 1., 1., 1., 1., 1., 1.,
          1., 1., 1. ]
      - [ 1., 1., 1., -1., 1., 1., -1., -1., -1., 1., 1., -1., -1., 1.,
          1., -1., 1., -1., -1. ]
      - [ -1., -1., -1., -1., -1., -1., -1., -1., -1., -1., -1., -1.,
          -1., -1., -1., 1., -1., -1., -1. ]
      - [ 1., -1., -1., -1., -1., -1., -1., -1., -1., -1., -1., -1., -1.,
          -1., -1., -1., -1., -1., -1. ]
      - [ 1., 1., -1., -1., -1., -1., -1., -1., -1., -1., -1., -1., -1.,
          1., 1., -1., -1., -1., -1. ]
      - [ -1., -1., -1., -1., -1., -1., -1., -1., -1., -1., -1., -1.,
          -1., -1., -1., -1., -1., -1., -1. ]
      - [ 1., 1., 1., 1., 1., 1., -1., -1., 1., 1., 1., 1., 1., 1., 1.,
          1., 1., 1., -1. ]
      - [ 1., 1., -1., -1., -1., -1., 1., 1., 1., -1., -1., -1., -1., 1.,
          1., 1., -1., 1., 1. ]
      - [ 1., 1., 1., -1., 1., 1., -1., -1., -1., 1., 1., -1., -1., 1.,
          1., 1., 1., 1., 1. ]
      - [ 1., -1., -1., -1., -1., -1., -1., -1., -1., -1., -1., -1., -1.,
          -1., -1., -1., -1., -1., -1. ]
      - [ 1., 1., -1., -1., -1., -1., 1., 1., 1., -1., -1., 1., 1., 1.,
          1., 1., -1., 1., 1. ]
      - [ 1., 1., 1., -1., 1., 1., -1., -1., -1., 1., 1., -1., -1., 1.,
          1., 1., 1., 1., 1. ]
      - [ -1., -1., -1., -1., -1., -1., 1., 1., 1., -1., -1., 1., 1., 1.,
          1., 1., -1., 1., 1. ]
      - [ -1., -1., -1., -1., -1., -1., -1., -1., -1., -1., -1., -1.,
          -1., -1., -1., -1., -1., -1., -1. ]
      - [ 1., 1., 1., 1., 1., 1., 1., -1., 1., 1., 1., 1., 1., 1., 1.,
          1., 1., 1., 1. ]
      - [ 1., 1., 1., 1., 1., 1., -1., -1., 1., 1., 1., 1., 1., 1., 1.,
          1., 1., 1., -1. ]
      - [ -1., -1., -1., -1., -1., -1., -1., -1., -1., -1., -1., -1.,
          -1., 1., 1., -1., -1., -1., -1. ]
      - [ 1., 1., 1., 1., 1., 1., 1., 1., 1., 1., 1., 1., 1., 1., 1., 1.,
          1., 1., 1. ]
      - [ 1., 1., -1., -1., -1., -1., 1., 1., 1., -1., -1., 1., 1., 1.,
          1., -1., -1., 1., 1. ]
      - [ -1., -1., -1., -1., -1., -1., -1., -1., -1., -1., -1., -1.,
          -1., -1., -1., 1., -1., -1., -1. ]
      - [ 1., 1., -1., -1., -1., -1., 1., 1., 1., -1., -1., -1., -1., 1.,
          1., 1., -1., 1., 1. ]
      - [ 1., 1., 1., 1., 1., 1., -1., 1., 1., 1., 1., 1., 1., 1., 1.,
          1., 1., 1., 1. ]
      - [ -1., -1., -1., -1., -1., -1., -1., -1., -1., -1., -1., -1.,
          -1., -1., -1., 1., -1., -1., -1. ]
      - [ 1., -1., 1., 1., 1., 1., -1., -1., -1., 1., 1., -1., 1., 1.,
          1., 1., 1., -1., -1. ]
      - [ -1., -1., -1., -1., -1., -1., -1., -1., -1., -1., -1., -1.,
          -1., -1., -1., -1., -1., -1., -1. ]
      - [ 1., 1., -1., -1., -1., -1., 1., 1., 1., -1., -1., 1., 1., 1.,
          1., 1., -1., 1., 1. ]
      - [ 1., 1., -1., -1., -1., -1., -1., -1., 1., -1., -1., 1., 1., 1.,
          1., 1., -1., 1., -1. ]
      - [ 1., 1., 1., 1., 1., 1., 1., -1., -1., 1., 1., -1., 1., 1., 1.,
          1., 1., 1., 1. ]
      - [ 1., 1., -1., -1., -1., -1., 1., -1., -1., -1., -1., -1., -1.,
          -1., -1., 1., -1., 1., 1. ]
      - [ -1., -1., -1., -1., -1., -1., -1., -1., -1., -1., -1., -1.,
          -1., -1., -1., -1., -1., -1., -1. ]
      - [ 1., 1., 1., 1., 1., 1., -1., -1., -1., 1., 1., -1., -1., 1.,
          1., -1., 1., -1., -1. ]
      - [ -1., -1., -1., -1., -1., -1., 1., 1., 1., -1., -1., 1., 1., 1.,
          1., 1., -1., 1., 1. ]
      - [ -1., -1., -1., -1., -1., -1., -1., -1., -1., -1., -1., -1.,
          -1., -1., -1., 1., -1., -1., -1. ]
      - [ 1., 1., 1., 1., 1., 1., 1., 1., 1., 1., 1., 1., 1., 1., 1.,
          -1., 1., 1., 1. ]
      - [ 1., 1., 1., 1., 1., 1., -1., -1., -1., 1., 1., -1., -1., 1.,
          1., -1., 1., -1., -1. ]
      - [ 1., 1., 1., 1., 1., 1., -1., -1., -1., 1., 1., -1., 1., 1., 1.,
          -1., 1., -1., -1. ]
      - [ 1., -1., -1., -1., -1., -1., -1., -1., -1., -1., -1., -1., -1.,
          -1., -1., 1., -1., 1., 1. ]
      - [ 1., 1., -1., -1., -1., -1., 1., 1., 1., -1., -1., -1., -1., 1.,
          1., 1., -1., 1., 1. ]
      - [ -1., -1., -1., -1., -1., -1., -1., -1., -1., -1., -1., -1.,
          -1., -1., -1., -1., -1., -1., -1. ]
      - [ 1., 1., -1., -1., -1., -1., -1., -1., 1., -1., -1., -1., -1.,
          1., 1., -1., -1., 1., -1. ]
      - [ -1., -1., -1., -1., -1., -1., -1., -1., -1., -1., -1., -1.,
          -1., 1., 1., -1., -1., -1., -1. ]
      - [ 1., 1., 1., 1., 1., 1., -1., -1., -1., 1., 1., -1., 1., 1., 1.,
          1., 1., -1., -1. ]
      - [ 1., 1., 1., 1., 1., 1., -1., -1., -1., 1., 1., -1., 1., 1., 1.,
          1., 1., 1., 1. ]
      - [ 1., 1., 1., -1., 1., 1., -1., -1., -1., 1., 1., -1., -1., 1.,
          1., -1., 1., -1., -1. ]
      - [ 1., 1., 1., 1., 1., 1., 1., -1., 1., 1., 1., 1., 1., 1., 1.,
          1., 1., 1., 1. ]
      - [ -1., -1., -1., -1., -1., -1., -1., -1., -1., -1., -1., -1.,
          -1., -1., -1., -1., -1., -1., -1. ]
      - [ -1., -1., -1., -1., -1., -1., -1., -1., -1., -1., -1., -1.,
          -1., -1., -1., -1., -1., -1., -1. ]
      - [ 1., 1., 1., -1., -1., -1., 1., 1., 1., 1., -1., -1., -1., 1.,
          1., 1., 1., 1., 1. ]
      - [ 1., 1., 1., 1., 1., 1., 1., 1., 1., 1., 1., 1., 1., 1., 1., 1.,
          1., 1., 1. ]
      - [ 1., -1., -1., -1., -1., -1., 1., 1., 1., -1., -1., -1., -1.,
          1., 1., 1., -1., 1., 1. ]
      - [ 1., 1., 1., 1., 1., 1., -1., -1., 1., 1., 1., 1., 1., 1., 1.,
          1., 1., 1., -1. ]
      - [ 1., -1., -1., -1., -1., -1., -1., -1., -1., -1., -1., -1., -1.,
          -1., -1., -1., -1., -1., -1. ]
      - [ -1., -1., -1., -1., -1., -1., -1., -1., -1., -1., -1., -1.,
          -1., -1., -1., -1., -1., -1., -1. ]
      - [ 1., 1., -1., -1., -1., -1., -1., 1., 1., -1., -1., 1., 1., 1.,
          1., -1., -1., 1., 1. ]
      - [ 1., 1., -1., -1., -1., -1., 1., -1., -1., -1., -1., -1., -1.,
          -1., -1., -1., -1., 1., 1. ]
      - [ 1., 1., 1., 1., 1., 1., -1., -1., 1., 1., 1., 1., 1., 1., 1.,
          -1., 1., 1., -1. ]
      - [ -1., -1., -1., -1., -1., -1., -1., -1., -1., -1., -1., -1.,
          -1., -1., -1., 1., -1., -1., -1. ]
      - [ 1., 1., -1., -1., -1., -1., -1., -1., -1., -1., -1., -1., -1.,
          -1., -1., -1., -1., -1., -1. ]
      - [ -1., -1., -1., -1., -1., -1., -1., -1., -1., -1., -1., -1.,
          -1., -1., -1., 1., -1., -1., -1. ]
      - [ -1., -1., -1., -1., -1., -1., -1., -1., -1., -1., -1., -1.,
          -1., -1., -1., -1., -1., -1., -1. ]
      - [ 1., 1., 1., 1., 1., 1., 1., 1., 1., 1., 1., 1., 1., 1., 1., 1.,
          1., 1., 1. ]
      - [ -1., -1., -1., -1., -1., -1., -1., -1., -1., -1., -1., -1.,
          -1., -1., -1., 1., -1., -1., -1. ]
      - [ -1., -1., -1., -1., -1., -1., -1., -1., -1., -1., -1., -1.,
          -1., -1., -1., -1., -1., 1., 1. ]
      - [ 1., 1., -1., -1., -1., -1., 1., 1., 1., -1., -1., -1., -1., 1.,
          1., 1., -1., 1., 1. ]
      - [ -1., -1., -1., -1., -1., -1., -1., -1., -1., -1., -1., -1.,
          -1., -1., -1., -1., -1., -1., -1. ]
      - [ 1., -1., -1., -1., -1., -1., -1., -1., -1., -1., -1., -1., -1.,
          -1., -1., 1., -1., 1., 1. ]
      - [ 1., -1., -1., -1., -1., -1., -1., -1., -1., -1., -1., -1., -1.,
          -1., -1., -1., -1., -1., -1. ]
      - [ -1., -1., -1., -1., -1., -1., -1., -1., -1., -1., -1., -1.,
          -1., -1., -1., 1., -1., -1., -1. ]
      - [ -1., -1., 1., -1., 1., 1., -1., -1., -1., 1., 1., -1., -1., 1.,
          1., -1., 1., -1., -1. ]
      - [ 1., 1., 1., 1., 1., 1., 1., 1., 1., 1., 1., 1., 1., 1., 1.,
          -1., 1., 1., 1. ]
      - [ -1., -1., -1., -1., -1., -1., -1., -1., -1., -1., -1., -1.,
          -1., -1., -1., -1., -1., -1., -1. ]
      - [ 1., -1., -1., -1., -1., 1., -1., -1., 1., 1., 1., -1., 1., 1.,
          1., 1., 1., 1., 1. ]
      - [ 1., 1., -1., -1., -1., -1., -1., -1., -1., -1., -1., -1., 1.,
          1., 1., 1., -1., -1., -1. ]
      - [ -1., -1., -1., -1., -1., -1., -1., -1., -1., -1., -1., -1.,
          -1., -1., -1., -1., -1., -1., -1. ]
      - [ -1., -1., -1., -1., -1., -1., 1., 1., 1., -1., -1., 1., 1., 1.,
          1., 1., -1., 1., 1. ]
      - [ -1., -1., -1., -1., -1., -1., -1., -1., -1., -1., -1., -1.,
          -1., -1., -1., -1., -1., -1., -1. ]
      - [ 1., 1., 1., 1., 1., 1., -1., -1., -1., 1., 1., -1., -1., 1.,
          1., -1., 1., -1., -1. ]
      - [ 1., -1., 1., 1., 1., 1., -1., -1., -1., 1., 1., -1., 1., 1.,
          1., 1., 1., -1., -1. ]
      - [ -1., -1., -1., -1., -1., -1., 1., -1., -1., -1., -1., -1., -1.,
          -1., -1., -1., -1., 1., 1. ]
      - [ 1., 1., -1., -1., -1., 1., 1., 1., 1., 1., 1., 1., 1., 1., 1.,
          1., 1., 1., 1. ]
      - [ 1., 1., 1., 1., 1., 1., -1., -1., 1., 1., 1., 1., 1., 1., 1.,
          1., 1., 1., -1. ]
      - [ -1., -1., -1., -1., -1., -1., -1., -1., -1., -1., -1., -1.,
          -1., -1., -1., -1., -1., -1., -1. ]
      - [ -1., -1., -1., -1., -1., -1., -1., -1., -1., -1., -1., -1.,
          -1., -1., -1., -1., -1., -1., -1. ]
      - [ 1., 1., 1., 1., 1., 1., 1., 1., 1., 1., 1., 1., 1., 1., 1., 1.,
          1., 1., 1. ]
      - [ 1., 1., 1., 1., 1., 1., -1., -1., 1., 1., 1., 1., 1., 1., 1.,
          1., 1., 1., 1. ]
      - [ -1., -1., -1., -1., -1., -1., -1., -1., -1., -1., -1., -1.,
          -1., -1., -1., -1., -1., -1., -1. ]
      - [ 1., 1., -1., -1., -1., -1., 1., -1., -1., -1., -1., -1., -1.,
          -1., -1., 1., -1., 1., 1. ]
      - [ -1., -1., -1., -1., -1., -1., -1., -1., -1., -1., -1., -1.,
          -1., -1., -1., -1., -1., -1., -1. ]
      - [ 1., 1., -1., -1., -1., -1., -1., -1., -1., -1., -1., -1., -1.,
          -1., -1., -1., -1., -1., -1. ]
      - [ 1., 1., 1., 1., 1., 1., -1., -1., -1., 1., 1., -1., 1., 1., 1.,
          -1., 1., -1., -1. ]
      - [ -1., -1., -1., -1., -1., -1., -1., -1., -1., -1., -1., -1.,
          -1., -1., -1., -1., -1., -1., -1. ]
      - [ 1., -1., -1., -1., -1., -1., -1., -1., -1., -1., -1., -1., -1.,
          -1., -1., 1., -1., 1., 1. ]
      - [ 1., -1., -1., -1., -1., -1., -1., -1., -1., -1., -1., -1., -1.,
          -1., -1., 1., -1., 1., 1. ]
      - [ 1., -1., 1., -1., -1., -1., -1., -1., -1., 1., -1., -1., -1.,
          -1., -1., -1., 1., -1., -1. ]
      - [ 1., 1., -1., -1., -1., -1., -1., -1., -1., -1., -1., -1., -1.,
          -1., -1., -1., -1., 1., -1. ]
      - [ -1., -1., 1., 1., 1., 1., -1., -1., -1., 1., 1., -1., 1., 1.,
          1., -1., 1., -1., -1. ]
      - [ -1., -1., -1., -1., -1., -1., -1., -1., -1., -1., -1., -1.,
          -1., -1., -1., -1., -1., 1., 1. ]
      - [ 1., 1., 1., 1., 1., 1., -1., -1., -1., 1., 1., -1., 1., 1., 1.,
          1., 1., -1., -1. ]
      - [ 1., 1., 1., 1., 1., 1., -1., -1., -1., 1., 1., -1., 1., 1., 1.,
          1., 1., -1., -1. ]
      - [ 1., -1., -1., -1., -1., -1., 1., 1., 1., -1., -1., -1., -1.,
          1., 1., -1., -1., 1., 1. ]
      - [ 1., 1., 1., 1., 1., 1., -1., -1., -1., 1., 1., -1., 1., 1., 1.,
          1., 1., -1., -1. ]
      - [ 1., -1., -1., -1., -1., -1., -1., -1., -1., -1., -1., -1., -1.,
          -1., -1., 1., -1., 1., 1. ]
      - [ -1., -1., -1., -1., -1., -1., -1., -1., -1., -1., -1., -1.,
          -1., -1., -1., -1., -1., 1., -1. ]
      - [ 1., 1., 1., 1., 1., 1., 1., 1., 1., 1., 1., 1., 1., 1., 1., 1.,
          1., 1., 1. ]
      - [ -1., -1., -1., -1., -1., -1., 1., 1., 1., -1., -1., 1., 1., 1.,
          1., -1., -1., 1., 1. ]
      - [ -1., -1., -1., -1., -1., -1., -1., -1., 1., -1., -1., -1., -1.,
          1., 1., 1., -1., 1., 1. ]
      - [ 1., 1., 1., 1., 1., 1., 1., 1., 1., 1., 1., 1., 1., 1., 1., 1.,
          1., 1., 1. ]
      - [ -1., -1., -1., -1., -1., -1., -1., -1., -1., -1., -1., -1.,
          -1., -1., -1., -1., -1., -1., -1. ]
      - [ 1., -1., -1., -1., -1., -1., -1., -1., 1., -1., -1., -1., -1.,
          1., 1., 1., -1., 1., -1. ]
      - [ -1., -1., -1., -1., -1., -1., -1., -1., -1., -1., -1., -1.,
          -1., -1., -1., -1., -1., -1., -1. ]
      - [ 1., 1., -1., -1., -1., -1., 1., 1., 1., -1., -1., -1., -1., 1.,
          1., 1., -1., 1., 1. ]
      - [ -1., -1., -1., -1., -1., -1., -1., -1., -1., -1., -1., -1.,
          -1., -1., -1., -1., -1., -1., -1. ]
      - [ -1., -1., -1., -1., -1., -1., -1., -1., -1., -1., -1., -1.,
          -1., -1., -1., -1., -1., -1., -1. ]
      - [ -1., -1., -1., -1., -1., -1., -1., -1., -1., -1., -1., -1.,
          -1., -1., -1., -1., -1., 1., 1. ]
      - [ -1., -1., 1., 1., 1., 1., -1., -1., -1., 1., 1., -1., -1., 1.,
          1., -1., 1., -1., -1. ]
      - [ 1., 1., -1., -1., -1., -1., -1., -1., 1., -1., -1., -1., 1.,
          1., 1., 1., -1., 1., 1. ]
      - [ 1., 1., -1., -1., -1., -1., -1., -1., -1., -1., -1., -1., -1.,
          -1., -1., -1., -1., 1., 1. ]
      - [ 1., 1., 1., 1., 1., 1., -1., -1., -1., 1., 1., -1., 1., 1., 1.,
          -1., 1., -1., -1. ]
      - [ 1., 1., -1., -1., -1., -1., -1., -1., -1., -1., -1., -1., -1.,
          -1., -1., -1., -1., 1., 1. ]
      - [ -1., -1., 1., 1., 1., 1., -1., -1., 1., 1., 1., 1., 1., 1., 1.,
          1., 1., 1., -1. ]
      - [ -1., -1., -1., -1., -1., -1., -1., -1., -1., -1., -1., -1.,
          -1., -1., -1., -1., -1., -1., -1. ]
      - [ -1., -1., -1., -1., -1., -1., -1., -1., -1., -1., -1., -1.,
          -1., -1., -1., -1., -1., -1., -1. ]
      - [ 1., 1., -1., -1., -1., -1., 1., 1., 1., -1., -1., -1., -1., 1.,
          1., -1., -1., 1., 1. ]
      - [ -1., -1., -1., -1., -1., -1., -1., -1., 1., -1., -1., -1., -1.,
          1., 1., -1., -1., 1., -1. ]
      - [ 1., 1., 1., 1., 1., 1., -1., -1., 1., 1., 1., 1., 1., 1., 1.,
          1., 1., 1., -1. ]
      - [ 1., 1., -1., -1., -1., -1., -1., -1., -1., -1., -1., -1., 1.,
          1., 1., 1., -1., -1., -1. ]
      - [ 1., -1., -1., -1., -1., 1., -1., -1., -1., 1., 1., -1., 1., 1.,
          1., 1., 1., -1., -1. ]
      - [ -1., -1., -1., -1., -1., -1., 1., -1., -1., -1., -1., -1., -1.,
          -1., -1., -1., -1., 1., 1. ]
      - [ -1., -1., -1., -1., -1., -1., -1., -1., -1., -1., -1., -1.,
          -1., -1., -1., -1., -1., -1., -1. ]
      - [ 1., 1., -1., -1., -1., -1., 1., 1., 1., -1., -1., 1., 1., 1.,
          1., -1., -1., 1., 1. ]
      - [ -1., -1., -1., -1., -1., -1., -1., -1., -1., -1., -1., -1.,
          -1., -1., -1., -1., -1., 1., -1. ]
      - [ 1., 1., -1., -1., -1., -1., -1., -1., 1., -1., -1., 1., 1., 1.,
          1., -1., -1., 1., -1. ]
      - [ 1., 1., 1., 1., 1., 1., -1., -1., 1., 1., 1., 1., 1., 1., 1.,
          -1., 1., 1., -1. ]
      - [ 1., 1., -1., -1., -1., -1., -1., -1., -1., -1., -1., -1., -1.,
          -1., 1., -1., -1., -1., -1. ]
      - [ -1., -1., -1., -1., -1., -1., 1., 1., 1., -1., -1., 1., 1., 1.,
          1., -1., -1., 1., 1. ]
      - [ 1., 1., 1., -1., -1., 1., 1., -1., 1., 1., 1., -1., -1., 1.,
          1., 1., 1., 1., 1. ]
      - [ 1., 1., 1., 1., 1., 1., -1., -1., -1., 1., 1., -1., -1., 1.,
          1., -1., 1., 1., 1. ]
      - [ -1., -1., -1., -1., -1., -1., -1., -1., -1., 1., -1., -1., -1.,
          -1., -1., -1., 1., -1., -1. ]
      - [ 1., 1., 1., 1., 1., 1., -1., -1., -1., 1., 1., -1., -1., 1.,
          1., -1., 1., -1., -1. ]
      - [ 1., 1., 1., 1., 1., 1., -1., -1., 1., 1., 1., 1., 1., 1., 1.,
          1., 1., 1., -1. ]
      - [ 1., 1., -1., -1., -1., -1., 1., 1., 1., -1., -1., -1., -1., 1.,
          1., 1., -1., 1., 1. ]
      - [ 1., 1., 1., 1., 1., 1., 1., 1., 1., 1., 1., 1., 1., 1., 1., 1.,
          1., 1., 1. ]
      - [ 1., 1., 1., 1., 1., 1., 1., -1., 1., 1., 1., -1., -1., 1., 1.,
          1., 1., 1., 1. ]
      - [ -1., -1., -1., -1., -1., -1., -1., -1., -1., -1., -1., -1.,
          -1., -1., -1., -1., -1., -1., -1. ]
      - [ -1., -1., -1., -1., -1., -1., -1., -1., -1., -1., -1., -1.,
          -1., -1., -1., -1., -1., -1., -1. ]
      - [ 1., 1., -1., -1., -1., -1., -1., -1., -1., -1., -1., -1., -1.,
          -1., 1., 1., -1., -1., -1. ]
      - [ -1., -1., -1., -1., -1., -1., 1., 1., 1., -1., -1., 1., 1., 1.,
          1., 1., -1., 1., 1. ]
      - [ 1., 1., -1., -1., -1., -1., 1., -1., -1., -1., -1., -1., -1.,
          -1., -1., 1., -1., 1., 1. ]
      - [ -1., -1., -1., -1., -1., -1., 1., 1., 1., -1., -1., 1., 1., 1.,
          1., 1., -1., 1., 1. ]
      - [ 1., 1., 1., 1., 1., 1., -1., -1., -1., 1., 1., -1., 1., 1., 1.,
          -1., 1., -1., -1. ]
      - [ 1., 1., 1., 1., 1., 1., -1., -1., 1., 1., 1., -1., -1., 1., 1.,
          1., 1., 1., 1. ]
      - [ 1., 1., -1., -1., -1., -1., 1., -1., -1., -1., -1., -1., -1.,
          -1., -1., 1., -1., 1., 1. ]
      - [ -1., -1., -1., -1., -1., -1., 1., 1., 1., -1., -1., -1., -1.,
          1., 1., -1., -1., 1., 1. ]
      - [ 1., 1., 1., 1., 1., 1., -1., 1., 1., 1., 1., 1., 1., 1., 1.,
          1., 1., 1., 1. ]
      - [ 1., 1., -1., -1., -1., -1., -1., -1., -1., -1., -1., -1., -1.,
          -1., -1., -1., -1., 1., -1. ]
      - [ 1., -1., -1., -1., -1., -1., -1., -1., -1., -1., -1., -1., -1.,
          -1., -1., 1., -1., 1., 1. ]
      - [ -1., -1., -1., -1., -1., -1., -1., -1., -1., -1., -1., -1.,
          -1., -1., -1., -1., -1., 1., 1. ]
      - [ 1., -1., -1., -1., -1., -1., -1., -1., -1., -1., -1., -1., -1.,
          -1., -1., 1., -1., 1., 1. ]
      - [ 1., 1., -1., -1., -1., -1., 1., -1., -1., -1., -1., -1., -1.,
          -1., -1., 1., -1., 1., 1. ]
      - [ -1., -1., -1., -1., -1., -1., -1., -1., -1., -1., -1., -1.,
          -1., -1., -1., -1., -1., 1., 1. ]
      - [ -1., -1., -1., -1., -1., -1., -1., -1., -1., -1., -1., -1., 1.,
          1., 1., -1., -1., -1., -1. ]
      - [ -1., -1., -1., -1., -1., -1., -1., 1., 1., -1., -1., 1., 1.,
          1., 1., -1., -1., 1., 1. ]
      - [ 1., 1., -1., -1., -1., 1., 1., 1., 1., 1., 1., 1., 1., 1., 1.,
          1., 1., 1., 1. ]
      - [ 1., 1., 1., 1., 1., 1., -1., 1., 1., 1., 1., 1., 1., 1., 1.,
          1., 1., 1., 1. ]
      - [ 1., 1., -1., -1., -1., -1., -1., 1., 1., -1., -1., -1., -1.,
          1., 1., 1., -1., 1., 1. ]
      - [ -1., -1., -1., -1., -1., -1., -1., -1., 1., -1., -1., -1., 1.,
          1., 1., -1., -1., 1., 1. ]
      - [ -1., -1., -1., -1., -1., -1., 1., -1., -1., -1., -1., -1., -1.,
          -1., -1., -1., -1., 1., 1. ]
      - [ -1., -1., -1., -1., -1., -1., -1., -1., 1., -1., -1., -1., 1.,
          1., 1., -1., -1., 1., 1. ]
      - [ 1., 1., 1., -1., 1., 1., -1., -1., -1., 1., 1., -1., -1., 1.,
          1., -1., 1., -1., -1. ]
      - [ 1., 1., -1., -1., -1., -1., -1., 1., 1., -1., -1., 1., 1., 1.,
          1., 1., -1., 1., 1. ]
      - [ 1., -1., -1., -1., -1., -1., -1., -1., -1., -1., -1., -1., -1.,
          -1., -1., 1., 1., 1., 1. ]
      - [ 1., 1., 1., 1., 1., 1., -1., -1., -1., 1., 1., -1., 1., 1., 1.,
          1., 1., -1., -1. ]
      - [ 1., 1., 1., 1., 1., 1., 1., 1., 1., 1., 1., 1., 1., 1., 1., 1.,
          1., 1., 1. ]
      - [ -1., -1., -1., -1., -1., -1., 1., -1., -1., -1., -1., -1., -1.,
          -1., -1., 1., -1., 1., 1. ]
      - [ 1., 1., 1., 1., 1., 1., -1., 1., 1., 1., 1., 1., 1., 1., 1.,
          1., 1., 1., 1. ]
      - [ -1., -1., -1., -1., -1., -1., 1., 1., 1., -1., -1., 1., 1., 1.,
          1., -1., -1., 1., 1. ]
      - [ -1., -1., -1., -1., -1., -1., -1., -1., -1., -1., -1., -1.,
          -1., -1., -1., 1., -1., -1., -1. ]
      - [ 1., 1., 1., 1., 1., 1., -1., -1., -1., 1., 1., -1., 1., 1., 1.,
          1., 1., -1., -1. ]
      - [ -1., -1., -1., -1., -1., -1., -1., -1., -1., -1., -1., -1.,
          -1., -1., 1., -1., -1., -1., -1. ]
      - [ -1., -1., -1., -1., -1., -1., -1., -1., -1., -1., -1., -1.,
          -1., -1., -1., -1., -1., -1., -1. ]
      - [ 1., 1., 1., 1., 1., 1., 1., 1., 1., 1., 1., 1., 1., 1., 1., 1.,
          1., 1., 1. ]
      - [ -1., -1., -1., -1., -1., -1., 1., 1., 1., -1., -1., 1., 1., 1.,
          1., 1., -1., 1., 1. ]
      - [ -1., -1., -1., -1., -1., -1., -1., -1., -1., -1., -1., -1.,
          -1., 1., 1., -1., -1., -1., -1. ]
      - [ 1., 1., 1., 1., 1., 1., -1., -1., 1., 1., 1., 1., 1., 1., 1.,
          1., 1., 1., -1. ]
      - [ -1., -1., -1., -1., -1., -1., -1., -1., -1., -1., -1., -1.,
          -1., -1., -1., -1., -1., -1., -1. ]
      - [ -1., -1., -1., -1., -1., -1., -1., -1., -1., -1., -1., -1.,
          -1., -1., -1., -1., -1., 1., 1. ]
      - [ -1., -1., -1., -1., -1., -1., 1., 1., 1., -1., -1., 1., 1., 1.,
          1., 1., -1., 1., 1. ]
      - [ -1., -1., -1., -1., -1., -1., -1., -1., -1., -1., -1., -1.,
          -1., -1., -1., 1., -1., -1., -1. ]
      - [ -1., -1., -1., -1., -1., 1., 1., 1., 1., 1., 1., 1., 1., 1.,
          1., -1., 1., 1., 1. ]
      - [ -1., -1., -1., -1., -1., -1., -1., -1., -1., -1., -1., -1.,
          -1., -1., -1., 1., -1., -1., -1. ]
      - [ -1., -1., -1., -1., -1., -1., 1., -1., -1., -1., -1., -1., -1.,
          -1., -1., 1., -1., 1., 1. ]
      - [ -1., -1., -1., -1., -1., -1., 1., 1., 1., -1., -1., 1., 1., 1.,
          1., 1., -1., 1., 1. ]
      - [ -1., -1., -1., -1., -1., -1., 1., 1., 1., -1., -1., 1., 1., 1.,
          1., 1., -1., 1., 1. ]
      - [ 1., 1., -1., -1., -1., -1., -1., -1., -1., -1., -1., -1., -1.,
          -1., -1., -1., -1., -1., -1. ]
      - [ -1., -1., -1., -1., -1., -1., 1., 1., 1., -1., -1., 1., 1., 1.,
          1., -1., -1., 1., 1. ]
      - [ 1., 1., 1., 1., 1., 1., 1., 1., 1., 1., 1., 1., 1., 1., 1., 1.,
          1., 1., 1. ]
      - [ -1., -1., -1., -1., -1., -1., -1., -1., -1., -1., -1., -1.,
          -1., -1., -1., -1., -1., -1., -1. ]
      - [ -1., -1., -1., -1., -1., -1., -1., -1., -1., -1., -1., -1.,
          -1., 1., 1., 1., -1., -1., -1. ]
      - [ -1., -1., -1., -1., -1., -1., -1., -1., -1., -1., -1., -1.,
          -1., -1., -1., 1., -1., -1., -1. ]
      - [ -1., -1., -1., -1., -1., -1., -1., -1., -1., -1., -1., -1.,
          -1., -1., -1., -1., -1., -1., -1. ]
      - [ -1., -1., -1., -1., -1., -1., -1., -1., -1., -1., -1., -1., 1.,
          1., 1., 1., -1., -1., -1. ]
      - [ 1., 1., -1., -1., -1., -1., 1., 1., 1., -1., -1., -1., -1., 1.,
          1., 1., -1., 1., 1. ]
      - [ -1., -1., -1., -1., -1., -1., -1., -1., -1., -1., -1., -1.,
          -1., -1., -1., -1., -1., -1., -1. ]
      - [ -1., -1., -1., -1., -1., -1., -1., -1., -1., -1., -1., -1.,
          -1., -1., -1., 1., -1., -1., -1. ]
      - [ -1., -1., -1., -1., -1., -1., 1., -1., -1., -1., -1., -1., -1.,
          -1., -1., -1., -1., 1., 1. ]
      - [ -1., -1., -1., -1., -1., -1., 1., 1., 1., -1., -1., 1., 1., 1.,
          1., -1., -1., 1., 1. ]
      - [ -1., -1., -1., -1., -1., -1., 1., 1., 1., -1., -1., 1., 1., 1.,
          1., -1., -1., 1., 1. ]
      - [ 1., -1., -1., -1., -1., -1., -1., -1., -1., -1., -1., -1., -1.,
          -1., -1., 1., -1., -1., -1. ]
      - [ 1., -1., -1., -1., -1., 1., 1., 1., 1., 1., 1., 1., 1., 1., 1.,
          1., 1., 1., 1. ]
      - [ -1., -1., -1., -1., -1., -1., -1., -1., -1., -1., -1., -1.,
          -1., -1., -1., -1., -1., -1., -1. ]
      - [ -1., -1., -1., -1., -1., -1., 1., 1., 1., -1., -1., 1., 1., 1.,
          1., -1., -1., 1., 1. ]
      - [ 1., 1., -1., -1., -1., -1., 1., 1., 1., -1., -1., -1., -1., 1.,
          1., 1., -1., 1., 1. ]
      - [ 1., -1., -1., -1., -1., -1., -1., -1., -1., -1., -1., -1., -1.,
          -1., -1., -1., -1., -1., -1. ]
      - [ -1., -1., -1., -1., -1., -1., -1., -1., -1., -1., -1., -1.,
          -1., -1., -1., 1., -1., -1., -1. ]
      - [ 1., 1., -1., -1., -1., -1., 1., -1., -1., -1., -1., -1., -1.,
          -1., -1., 1., -1., 1., 1. ]
      - [ 1., 1., 1., 1., 1., 1., 1., 1., 1., 1., 1., 1., 1., 1., 1., 1.,
          1., 1., 1. ]
      - [ -1., -1., -1., -1., -1., -1., -1., -1., -1., -1., -1., -1., 1.,
          1., 1., -1., -1., -1., -1. ]
      - [ -1., -1., -1., -1., -1., -1., 1., 1., 1., -1., -1., 1., 1., 1.,
          1., 1., -1., 1., 1. ]
      - [ -1., -1., -1., -1., -1., 1., -1., -1., -1., -1., -1., -1., -1.,
          1., 1., 1., 1., -1., -1. ]
      - [ -1., -1., -1., -1., -1., -1., 1., -1., -1., -1., -1., -1., -1.,
          -1., -1., 1., -1., 1., 1. ]
      - [ -1., -1., -1., -1., -1., -1., -1., -1., -1., -1., -1., -1.,
          -1., 1., 1., 1., -1., -1., -1. ]
      - [ 1., -1., -1., -1., -1., 1., 1., 1., 1., 1., 1., 1., 1., 1., 1.,
          1., 1., 1., 1. ]
      - [ -1., -1., -1., -1., -1., -1., -1., -1., -1., -1., -1., -1.,
          -1., 1., 1., -1., -1., -1., -1. ]
      - [ -1., -1., -1., -1., -1., -1., -1., -1., -1., -1., -1., -1.,
          -1., -1., -1., 1., -1., -1., -1. ]
      - [ -1., -1., -1., -1., -1., -1., -1., -1., -1., -1., -1., -1.,
          -1., -1., -1., 1., -1., -1., -1. ]
      - [ 1., 1., -1., -1., -1., -1., -1., -1., 1., -1., -1., 1., 1., 1.,
          1., -1., -1., 1., -1. ]
      - [ 1., 1., -1., -1., -1., -1., 1., -1., -1., -1., -1., -1., -1.,
          -1., -1., -1., -1., 1., 1. ]
      - [ -1., -1., -1., -1., -1., -1., 1., 1., 1., -1., -1., 1., 1., 1.,
          1., -1., -1., 1., 1. ]
      - [ 1., 1., 1., 1., 1., 1., -1., -1., -1., 1., 1., -1., 1., 1., 1.,
          1., 1., -1., -1. ]
      - [ -1., -1., -1., -1., -1., -1., -1., 1., 1., -1., -1., -1., -1.,
          1., 1., -1., -1., 1., 1. ]
      - [ 1., 1., 1., 1., 1., 1., -1., -1., -1., 1., 1., -1., 1., 1., 1.,
          1., 1., -1., -1. ]
      - [ 1., 1., -1., -1., -1., -1., 1., 1., 1., -1., -1., 1., 1., 1.,
          1., -1., -1., 1., 1. ]
      - [ -1., -1., -1., -1., -1., -1., -1., -1., -1., -1., -1., -1.,
          -1., -1., -1., -1., -1., 1., 1. ]
      - [ -1., -1., -1., -1., -1., -1., 1., 1., 1., -1., -1., 1., 1., 1.,
          1., -1., -1., 1., 1. ]
      - [ -1., -1., -1., -1., -1., -1., -1., -1., 1., -1., -1., -1., -1.,
          1., 1., -1., -1., 1., -1. ]
      - [ 1., -1., -1., -1., -1., -1., -1., -1., -1., -1., -1., -1., -1.,
          -1., -1., 1., -1., 1., -1. ]
      - [ -1., -1., 1., 1., 1., 1., -1., -1., -1., 1., 1., -1., 1., 1.,
          1., -1., 1., -1., -1. ]
      - [ -1., -1., -1., -1., -1., -1., -1., -1., -1., -1., -1., -1.,
          -1., -1., -1., -1., -1., -1., -1. ]
      - [ -1., -1., 1., 1., 1., 1., -1., -1., -1., 1., 1., -1., 1., 1.,
          1., -1., 1., -1., -1. ]
      - [ 1., 1., 1., 1., 1., 1., 1., 1., 1., 1., 1., 1., 1., 1., 1., 1.,
          1., 1., 1. ]
      - [ -1., -1., -1., -1., -1., -1., -1., -1., -1., -1., -1., -1.,
          -1., -1., -1., -1., -1., -1., -1. ]
      - [ -1., -1., -1., -1., -1., -1., -1., -1., -1., -1., -1., -1.,
          -1., -1., -1., -1., -1., -1., -1. ]
      - [ -1., -1., -1., -1., -1., -1., 1., 1., 1., -1., -1., -1., -1.,
          1., 1., 1., -1., 1., 1. ]
      - [ -1., -1., -1., -1., -1., -1., -1., -1., 1., -1., -1., -1., -1.,
          1., 1., -1., -1., 1., -1. ]
      - [ -1., -1., -1., -1., -1., -1., -1., -1., -1., -1., -1., -1.,
          -1., 1., 1., 1., -1., -1., -1. ]
      - [ -1., -1., -1., -1., -1., -1., 1., 1., 1., -1., -1., 1., 1., 1.,
          1., -1., -1., 1., 1. ]
      - [ -1., -1., -1., -1., -1., -1., -1., -1., -1., -1., -1., -1.,
          -1., -1., -1., -1., -1., 1., -1. ]
      - [ -1., -1., -1., -1., -1., -1., -1., -1., -1., -1., -1., -1.,
          -1., 1., 1., -1., -1., -1., -1. ]
      - [ -1., -1., -1., -1., -1., -1., -1., -1., 1., -1., -1., -1., -1.,
          1., 1., -1., -1., 1., -1. ]
      - [ -1., -1., -1., -1., -1., -1., 1., 1., 1., -1., -1., 1., 1., 1.,
          1., 1., -1., 1., 1. ]
      - [ -1., -1., -1., -1., -1., -1., -1., -1., 1., -1., -1., -1., -1.,
          1., 1., 1., -1., 1., -1. ]
      - [ -1., -1., -1., -1., -1., -1., 1., 1., 1., -1., -1., 1., 1., 1.,
          1., -1., -1., 1., 1. ]
      - [ -1., -1., -1., -1., -1., -1., 1., 1., 1., -1., -1., -1., -1.,
          1., 1., 1., -1., 1., 1. ]
      - [ -1., -1., -1., -1., -1., -1., 1., 1., 1., -1., -1., 1., 1., 1.,
          1., 1., -1., 1., 1. ]
      - [ -1., -1., -1., -1., -1., -1., 1., 1., 1., -1., -1., 1., 1., 1.,
          1., -1., -1., 1., 1. ]
      - [ -1., -1., -1., -1., -1., -1., -1., -1., -1., -1., -1., -1.,
          -1., -1., -1., -1., -1., 1., -1. ]
      - [ 1., 1., -1., -1., -1., -1., 1., 1., 1., -1., -1., -1., -1., 1.,
          1., -1., -1., 1., 1. ]
      - [ -1., -1., -1., -1., -1., -1., -1., -1., -1., -1., -1., -1.,
          -1., 1., 1., -1., -1., -1., -1. ]
      - [ -1., -1., -1., -1., -1., -1., 1., 1., 1., -1., -1., 1., 1., 1.,
          1., -1., -1., 1., 1. ]
      - [ -1., -1., 1., 1., 1., 1., -1., -1., 1., 1., 1., 1., 1., 1., 1.,
          -1., 1., 1., -1. ]
      - [ 1., 1., -1., -1., -1., -1., 1., -1., -1., -1., -1., -1., -1.,
          -1., -1., 1., -1., 1., 1. ]
      - [ 1., 1., 1., 1., 1., 1., -1., -1., -1., 1., 1., -1., 1., 1., 1.,
          -1., 1., -1., -1. ]
      - [ -1., -1., -1., -1., -1., -1., -1., -1., -1., -1., -1., -1.,
          -1., -1., -1., -1., -1., -1., -1. ]
      - [ -1., -1., -1., -1., -1., -1., -1., -1., -1., -1., -1., -1.,
          -1., -1., -1., -1., -1., -1., -1. ]
      - [ 1., -1., 1., 1., 1., 1., -1., -1., -1., 1., 1., -1., 1., 1.,
          1., 1., 1., -1., -1. ]
      - [ 1., 1., 1., 1., 1., 1., -1., -1., -1., 1., 1., -1., -1., 1.,
          1., -1., 1., -1., -1. ]
      - [ 1., -1., -1., -1., -1., -1., -1., -1., 1., -1., -1., 1., 1.,
          1., 1., 1., -1., 1., -1. ]
      - [ -1., -1., -1., -1., -1., -1., -1., -1., 1., -1., -1., 1., 1.,
          1., 1., 1., -1., 1., -1. ]
      - [ -1., -1., -1., -1., -1., -1., -1., -1., -1., -1., -1., -1.,
          -1., -1., -1., -1., -1., -1., -1. ]
      - [ 1., 1., -1., -1., -1., -1., -1., -1., 1., -1., -1., -1., -1.,
          1., 1., 1., -1., 1., -1. ]
      - [ -1., -1., -1., -1., -1., -1., -1., -1., -1., -1., -1., -1.,
          -1., -1., -1., 1., -1., -1., -1. ]
      - [ -1., -1., -1., -1., -1., -1., -1., -1., 1., -1., -1., -1., -1.,
          1., 1., 1., -1., 1., -1. ]
      - [ -1., -1., -1., -1., -1., -1., -1., -1., -1., -1., -1., -1.,
          -1., -1., -1., 1., -1., -1., -1. ]
      - [ -1., -1., -1., -1., -1., -1., -1., -1., -1., -1., -1., -1.,
          -1., -1., -1., 1., -1., -1., -1. ]
      - [ 1., 1., -1., -1., -1., -1., -1., -1., -1., -1., -1., -1., -1.,
          -1., -1., -1., -1., -1., -1. ]
      - [ -1., -1., -1., -1., -1., -1., -1., -1., -1., -1., -1., -1.,
          -1., -1., -1., -1., -1., -1., -1. ]
      - [ 1., 1., 1., 1., 1., 1., -1., -1., -1., 1., 1., -1., 1., 1., 1.,
          1., 1., -1., -1. ]
      - [ 1., -1., -1., -1., -1., -1., 1., 1., 1., -1., -1., 1., 1., 1.,
          1., 1., -1., 1., 1. ]
      - [ 1., 1., -1., -1., -1., -1., -1., -1., 1., -1., -1., 1., 1., 1.,
          1., -1., -1., 1., -1. ]
      - [ 1., 1., -1., -1., -1., -1., -1., -1., -1., -1., -1., -1., -1.,
          -1., -1., -1., -1., -1., -1. ]
      - [ -1., -1., -1., -1., -1., -1., -1., -1., -1., -1., -1., -1.,
          -1., -1., -1., -1., -1., -1., -1. ]
      - [ -1., -1., -1., -1., -1., -1., -1., -1., -1., -1., -1., -1.,
          -1., -1., -1., -1., -1., 1., 1. ]
      - [ 1., -1., 1., 1., 1., 1., -1., -1., 1., 1., 1., 1., 1., 1., 1.,
          1., 1., 1., -1. ]
      - [ 1., 1., -1., -1., -1., -1., -1., -1., -1., -1., -1., -1., -1.,
          -1., -1., 1., -1., 1., 1. ]
      - [ -1., -1., -1., -1., -1., -1., -1., -1., 1., -1., -1., 1., 1.,
          1., 1., -1., -1., 1., -1. ]
      - [ 1., -1., -1., -1., -1., -1., -1., -1., 1., -1., -1., -1., -1.,
          1., 1., 1., -1., 1., -1. ]
      - [ 1., 1., -1., -1., -1., -1., 1., 1., 1., -1., -1., 1., 1., 1.,
          1., 1., -1., 1., 1. ]
      - [ -1., -1., -1., -1., -1., -1., -1., -1., 1., -1., -1., 1., 1.,
          1., 1., 1., -1., 1., 1. ]
      - [ -1., -1., -1., -1., -1., -1., -1., -1., -1., -1., -1., -1.,
          -1., -1., -1., -1., -1., 1., 1. ]
      - [ 1., -1., 1., -1., 1., 1., -1., -1., -1., 1., 1., -1., -1., 1.,
          1., 1., 1., -1., -1. ]
      - [ 1., 1., 1., 1., 1., 1., 1., 1., 1., 1., 1., 1., 1., 1., 1., 1.,
          1., 1., 1. ]
      - [ -1., -1., -1., -1., -1., -1., 1., 1., 1., -1., -1., -1., -1.,
          1., 1., -1., -1., 1., 1. ]
      - [ 1., 1., -1., -1., -1., -1., -1., -1., -1., -1., -1., -1., -1.,
          -1., -1., -1., -1., -1., -1. ]
      - [ -1., -1., -1., -1., -1., -1., -1., -1., -1., -1., -1., -1.,
          -1., -1., -1., -1., -1., -1., -1. ]
      - [ 1., 1., -1., -1., -1., -1., -1., -1., -1., -1., -1., -1., -1.,
          -1., -1., 1., -1., 1., -1. ]
      - [ 1., 1., 1., 1., 1., 1., 1., 1., 1., 1., 1., 1., 1., 1., 1., 1.,
          1., 1., 1. ]
      - [ 1., 1., -1., -1., -1., -1., -1., -1., -1., -1., -1., -1., -1.,
          -1., -1., -1., -1., -1., -1. ]
      - [ -1., -1., -1., -1., -1., -1., -1., -1., -1., -1., -1., -1.,
          -1., -1., -1., -1., -1., -1., -1. ]
      - [ -1., -1., -1., -1., -1., -1., -1., -1., -1., -1., -1., -1.,
          -1., 1., 1., -1., -1., -1., -1. ]
      - [ -1., -1., -1., -1., -1., -1., -1., -1., -1., -1., -1., -1.,
          -1., 1., 1., -1., -1., -1., -1. ]
      - [ 1., 1., -1., -1., -1., -1., 1., 1., 1., -1., -1., -1., -1., 1.,
          1., 1., -1., 1., 1. ]
      - [ -1., -1., 1., 1., 1., 1., -1., -1., -1., 1., 1., -1., -1., 1.,
          1., -1., 1., -1., -1. ]
      - [ 1., 1., -1., -1., -1., -1., -1., -1., -1., -1., -1., -1., -1.,
          -1., -1., -1., -1., -1., -1. ]
      - [ 1., -1., -1., -1., -1., 1., 1., 1., 1., 1., 1., -1., -1., 1.,
          1., 1., 1., 1., 1. ]
      - [ -1., -1., 1., 1., 1., 1., -1., -1., -1., 1., 1., -1., -1., 1.,
          1., -1., 1., -1., -1. ]
      - [ -1., -1., -1., -1., -1., -1., -1., -1., -1., -1., -1., -1.,
          -1., -1., -1., -1., -1., -1., -1. ]
      - [ -1., -1., 1., 1., 1., 1., -1., -1., -1., 1., 1., -1., -1., 1.,
          1., -1., 1., -1., -1. ]
      - [ 1., 1., -1., -1., -1., -1., 1., 1., 1., -1., -1., 1., 1., 1.,
          1., -1., -1., 1., 1. ]
      - [ -1., -1., -1., -1., -1., -1., -1., -1., -1., -1., -1., -1.,
          -1., -1., -1., -1., -1., -1., -1. ]
      - [ -1., -1., -1., -1., -1., -1., -1., -1., -1., -1., -1., -1.,
          -1., -1., -1., -1., -1., -1., -1. ]
      - [ -1., -1., 1., 1., 1., 1., 1., -1., 1., 1., 1., 1., 1., 1., 1.,
          -1., 1., 1., 1. ]
      - [ -1., -1., -1., -1., -1., -1., -1., -1., -1., -1., -1., -1.,
          -1., -1., 1., -1., -1., -1., -1. ]
      - [ -1., -1., -1., -1., -1., -1., -1., -1., -1., -1., -1., -1.,
          -1., -1., -1., -1., -1., -1., -1. ]
      - [ -1., -1., -1., -1., -1., -1., -1., -1., -1., -1., -1., -1.,
          -1., -1., -1., -1., -1., -1., -1. ]
      - [ 1., 1., 1., -1., -1., -1., -1., -1., -1., 1., -1., -1., -1.,
          -1., -1., 1., 1., 1., -1. ]
      - [ -1., -1., -1., -1., -1., -1., -1., -1., -1., -1., -1., -1., 1.,
          1., 1., -1., -1., -1., -1. ]
      - [ -1., -1., -1., -1., -1., -1., -1., -1., -1., -1., -1., -1., 1.,
          1., 1., -1., -1., -1., -1. ]
      - [ 1., -1., -1., -1., -1., -1., -1., -1., -1., -1., -1., -1., -1.,
          -1., -1., 1., -1., 1., 1. ]
      - [ -1., -1., 1., 1., 1., 1., -1., -1., -1., 1., 1., -1., 1., 1.,
          1., 1., 1., -1., -1. ]
      - [ -1., -1., -1., -1., -1., -1., -1., -1., -1., -1., -1., -1.,
          -1., -1., -1., -1., -1., 1., 1. ]
      - [ 1., 1., 1., 1., 1., 1., -1., -1., -1., 1., 1., -1., -1., 1.,
          1., -1., 1., -1., -1. ]
      - [ 1., 1., 1., 1., 1., 1., -1., -1., -1., 1., 1., -1., 1., 1., 1.,
          1., 1., -1., -1. ]
      - [ 1., 1., 1., 1., 1., 1., -1., -1., 1., 1., 1., 1., 1., 1., 1.,
          1., 1., 1., -1. ]
      - [ 1., -1., -1., -1., -1., -1., -1., -1., -1., -1., -1., -1., -1.,
          -1., -1., 1., -1., -1., -1. ]
      - [ 1., -1., -1., -1., -1., -1., -1., -1., -1., -1., -1., -1., -1.,
          -1., -1., 1., -1., 1., 1. ]
      - [ -1., -1., -1., -1., -1., -1., -1., -1., -1., -1., -1., -1.,
          -1., -1., -1., 1., -1., -1., -1. ]
      - [ 1., 1., -1., -1., -1., -1., 1., -1., -1., -1., -1., -1., -1.,
          -1., -1., 1., -1., 1., 1. ]
      - [ -1., -1., -1., -1., -1., -1., -1., -1., -1., -1., -1., -1.,
          -1., -1., -1., 1., -1., -1., -1. ]
      - [ -1., -1., 1., 1., 1., 1., -1., -1., 1., 1., 1., 1., 1., 1., 1.,
          -1., 1., 1., -1. ]
      - [ -1., -1., -1., -1., -1., -1., -1., -1., -1., -1., -1., -1.,
          -1., -1., -1., -1., -1., -1., -1. ]
      - [ -1., -1., -1., -1., -1., 1., -1., -1., -1., -1., -1., -1., -1.,
          1., 1., -1., 1., -1., -1. ]
      - [ 1., 1., -1., -1., -1., -1., -1., -1., -1., -1., -1., -1., -1.,
          -1., -1., 1., -1., -1., -1. ]
      - [ 1., 1., 1., 1., 1., 1., -1., -1., 1., 1., 1., -1., 1., 1., 1.,
          -1., 1., 1., 1. ]
      - [ -1., -1., -1., -1., -1., -1., -1., -1., -1., -1., -1., -1.,
          -1., -1., -1., -1., -1., -1., -1. ]
      - [ -1., -1., -1., -1., -1., -1., -1., -1., -1., -1., -1., -1.,
          -1., -1., -1., -1., -1., -1., -1. ]
      - [ 1., 1., 1., -1., 1., 1., 1., -1., -1., -1., -1., -1., -1., 1.,
          1., -1., 1., 1., 1. ]
      - [ 1., 1., 1., -1., 1., 1., -1., -1., -1., 1., 1., -1., -1., 1.,
          1., -1., 1., -1., -1. ]
      - [ -1., -1., -1., -1., -1., -1., -1., -1., -1., -1., -1., -1.,
          -1., -1., -1., -1., -1., 1., 1. ]
      - [ -1., -1., 1., -1., 1., 1., -1., -1., -1., 1., 1., -1., -1., 1.,
          1., -1., 1., -1., -1. ]
      - [ 1., 1., -1., -1., -1., -1., -1., -1., -1., -1., -1., -1., -1.,
          -1., -1., 1., -1., 1., 1. ]
      - [ -1., -1., -1., -1., -1., -1., -1., -1., -1., -1., -1., -1.,
          -1., -1., -1., 1., -1., -1., -1. ]
      - [ 1., -1., -1., -1., -1., 1., 1., 1., 1., 1., 1., -1., -1., 1.,
          1., 1., 1., 1., 1. ]
      - [ -1., -1., -1., -1., -1., -1., -1., -1., -1., -1., -1., -1.,
          -1., -1., -1., 1., -1., -1., -1. ]
      - [ 1., 1., -1., -1., -1., -1., -1., -1., -1., -1., -1., -1., -1.,
          -1., -1., -1., -1., 1., -1. ]
      - [ 1., -1., 1., -1., 1., 1., -1., -1., -1., 1., 1., -1., -1., 1.,
          1., 1., 1., -1., -1. ]
      - [ -1., -1., -1., -1., -1., -1., -1., -1., -1., -1., -1., -1.,
          -1., -1., -1., -1., -1., -1., -1. ]
      - [ -1., -1., -1., -1., -1., -1., -1., -1., -1., -1., -1., -1.,
          -1., -1., -1., -1., -1., 1., 1. ]
      - [ -1., -1., -1., -1., -1., -1., 1., 1., 1., -1., -1., -1., -1.,
          1., 1., -1., -1., 1., 1. ]
      - [ 1., 1., -1., -1., -1., -1., 1., -1., -1., -1., -1., -1., -1.,
          -1., -1., 1., -1., 1., 1. ]
      - [ 1., -1., -1., -1., -1., -1., -1., -1., -1., -1., -1., -1., -1.,
          -1., -1., 1., -1., -1., -1. ]
      - [ -1., -1., 1., -1., -1., -1., -1., -1., 1., 1., -1., -1., -1.,
          1., 1., -1., 1., 1., 1. ]
      - [ 1., -1., -1., -1., -1., -1., -1., -1., -1., -1., -1., -1., -1.,
          -1., -1., -1., -1., -1., -1. ]
      - [ -1., -1., -1., -1., -1., -1., -1., -1., -1., -1., -1., -1.,
          -1., -1., -1., -1., -1., 1., -1. ]
      - [ 1., -1., -1., -1., -1., -1., -1., -1., -1., -1., -1., -1., -1.,
          -1., -1., 1., -1., -1., -1. ]
      - [ 1., -1., -1., -1., -1., -1., -1., -1., -1., -1., -1., -1., -1.,
          -1., -1., -1., -1., -1., -1. ]
      - [ 1., -1., -1., -1., -1., -1., 1., -1., -1., -1., -1., -1., -1.,
          -1., -1., 1., -1., 1., 1. ]
      - [ 1., 1., -1., -1., -1., -1., -1., 1., 1., -1., -1., 1., 1., 1.,
          1., 1., -1., 1., 1. ]
      - [ 1., 1., 1., 1., 1., 1., -1., -1., -1., 1., 1., -1., 1., 1., 1.,
          1., 1., -1., -1. ]
      - [ -1., -1., -1., -1., -1., -1., -1., -1., -1., -1., -1., -1.,
          -1., -1., -1., -1., -1., -1., -1. ]
      - [ 1., 1., 1., 1., 1., 1., -1., 1., 1., 1., 1., 1., 1., 1., 1.,
          1., 1., 1., 1. ]
      - [ 1., 1., -1., -1., -1., -1., -1., -1., -1., -1., -1., -1., -1.,
          -1., -1., 1., -1., -1., -1. ]
      - [ 1., 1., 1., 1., 1., 1., -1., -1., -1., 1., 1., -1., 1., 1., 1.,
          -1., 1., -1., -1. ]
      - [ 1., 1., 1., 1., 1., 1., -1., -1., -1., 1., 1., -1., 1., 1., 1.,
          -1., 1., -1., -1. ]
      - [ 1., 1., -1., -1., -1., -1., -1., -1., 1., -1., -1., 1., 1., 1.,
          1., -1., -1., 1., -1. ]
      - [ 1., 1., 1., 1., 1., 1., -1., -1., -1., 1., 1., -1., -1., 1.,
          1., -1., 1., -1., -1. ]
      - [ -1., -1., 1., -1., 1., 1., -1., -1., -1., 1., 1., -1., -1., 1.,
          1., -1., 1., -1., -1. ]
      - [ 1., 1., 1., 1., 1., 1., 1., 1., 1., 1., 1., 1., 1., 1., 1., 1.,
          1., 1., 1. ]
      - [ 1., 1., 1., 1., 1., 1., 1., -1., 1., 1., 1., -1., 1., 1., 1.,
          1., 1., 1., 1. ]
      - [ 1., 1., -1., -1., -1., -1., 1., 1., 1., -1., -1., -1., -1., 1.,
          1., 1., -1., 1., 1. ]
      - [ -1., -1., 1., 1., 1., 1., -1., -1., 1., 1., 1., -1., -1., 1.,
          1., -1., 1., 1., -1. ]
      - [ -1., -1., -1., -1., -1., -1., 1., -1., -1., -1., -1., -1., -1.,
          -1., -1., -1., -1., 1., 1. ]
      - [ 1., 1., 1., 1., 1., 1., 1., 1., 1., 1., 1., 1., 1., 1., 1., 1.,
          1., 1., 1. ]
      - [ -1., -1., -1., -1., -1., -1., -1., -1., -1., -1., -1., -1.,
          -1., -1., -1., -1., -1., -1., -1. ]
      - [ 1., 1., -1., -1., -1., -1., -1., -1., -1., -1., -1., -1., -1.,
          -1., -1., -1., -1., 1., -1. ]
      - [ 1., 1., -1., -1., -1., -1., 1., -1., -1., -1., -1., -1., -1.,
          -1., -1., 1., -1., 1., 1. ]
      - [ 1., 1., 1., 1., 1., 1., -1., -1., -1., 1., 1., -1., 1., 1., 1.,
          1., 1., -1., -1. ]
      - [ 1., -1., 1., -1., 1., 1., -1., -1., -1., 1., 1., -1., -1., 1.,
          1., 1., 1., 1., -1. ]
      - [ 1., -1., -1., -1., -1., -1., -1., -1., -1., -1., -1., -1., -1.,
          -1., -1., -1., -1., -1., -1. ]
      - [ 1., 1., 1., 1., 1., 1., -1., -1., 1., 1., 1., -1., 1., 1., 1.,
          1., 1., 1., 1. ]
      - [ 1., 1., 1., 1., 1., 1., -1., -1., -1., 1., 1., -1., 1., 1., 1.,
          1., 1., -1., -1. ]
      - [ 1., 1., 1., 1., 1., 1., 1., 1., 1., 1., 1., 1., 1., 1., 1., 1.,
          1., 1., 1. ]
      - [ 1., 1., 1., 1., 1., 1., 1., 1., 1., 1., 1., 1., 1., 1., 1.,
          -1., 1., 1., 1. ]
      - [ 1., 1., -1., -1., -1., -1., -1., -1., 1., -1., -1., -1., -1.,
          1., 1., -1., -1., 1., -1. ]
      - [ 1., 1., 1., 1., 1., 1., -1., -1., 1., 1., 1., -1., 1., 1., 1.,
          1., 1., 1., 1. ]
      - [ 1., 1., -1., -1., -1., -1., -1., -1., -1., 1., -1., -1., -1.,
          -1., -1., 1., 1., -1., -1. ]
      - [ 1., 1., -1., -1., -1., -1., 1., 1., 1., -1., -1., 1., 1., 1.,
          1., 1., -1., 1., 1. ]
      - [ 1., 1., -1., -1., -1., -1., 1., 1., 1., -1., -1., 1., 1., 1.,
          1., -1., -1., 1., 1. ]
      - [ 1., 1., 1., 1., 1., 1., -1., -1., -1., 1., 1., -1., -1., 1.,
          1., -1., 1., -1., -1. ]
      - [ 1., 1., -1., -1., -1., -1., 1., 1., 1., -1., -1., 1., 1., 1.,
          1., 1., -1., 1., 1. ]
      - [ 1., 1., 1., 1., 1., 1., -1., -1., -1., 1., 1., -1., 1., 1., 1.,
          1., 1., 1., -1. ]
      - [ -1., -1., -1., -1., -1., -1., -1., -1., -1., -1., -1., -1.,
          -1., -1., -1., -1., -1., -1., -1. ]
      - [ 1., 1., -1., -1., -1., -1., -1., -1., 1., -1., -1., 1., 1., 1.,
          1., 1., -1., 1., 1. ]
      - [ -1., -1., -1., -1., -1., -1., -1., -1., -1., -1., -1., -1.,
          -1., -1., -1., -1., -1., 1., 1. ]
      - [ 1., 1., 1., 1., 1., 1., 1., 1., 1., 1., 1., 1., 1., 1., 1., 1.,
          1., 1., 1. ]
      - [ 1., 1., 1., 1., 1., 1., -1., -1., -1., 1., 1., -1., 1., 1., 1.,
          1., 1., -1., -1. ]
      - [ -1., -1., -1., -1., -1., -1., -1., -1., -1., -1., -1., -1.,
          -1., -1., -1., -1., -1., -1., -1. ]
      - [ 1., 1., 1., 1., 1., 1., -1., -1., 1., 1., 1., -1., 1., 1., 1.,
          -1., 1., 1., -1. ]
      - [ 1., 1., -1., -1., -1., -1., -1., -1., -1., 1., -1., -1., -1.,
          -1., -1., 1., 1., -1., -1. ]
      - [ -1., -1., -1., -1., -1., -1., -1., -1., -1., -1., -1., -1.,
          -1., -1., -1., -1., -1., 1., 1. ]
      - [ -1., -1., -1., -1., -1., -1., -1., -1., -1., -1., -1., -1.,
          -1., -1., -1., -1., -1., -1., -1. ]
      - [ 1., 1., 1., -1., 1., 1., -1., -1., -1., 1., 1., -1., -1., 1.,
          1., -1., 1., -1., -1. ]
      - [ 1., 1., 1., 1., 1., 1., -1., -1., 1., 1., 1., 1., 1., 1., 1.,
          1., 1., 1., -1. ]
      - [ 1., 1., 1., 1., 1., 1., -1., -1., -1., 1., 1., -1., -1., 1.,
          1., 1., 1., 1., 1. ]
      - [ 1., 1., -1., -1., -1., -1., 1., 1., 1., -1., -1., 1., 1., 1.,
          1., -1., -1., 1., 1. ]
      - [ 1., 1., -1., -1., -1., -1., 1., 1., 1., -1., -1., -1., -1., 1.,
          1., 1., -1., 1., 1. ]
      - [ 1., 1., -1., -1., -1., -1., 1., 1., 1., -1., -1., -1., -1., 1.,
          1., 1., -1., 1., 1. ]
      - [ 1., 1., 1., 1., 1., 1., 1., 1., 1., 1., 1., 1., 1., 1., 1., 1.,
          1., 1., 1. ]
      - [ -1., -1., -1., -1., -1., -1., -1., -1., -1., -1., -1., -1.,
          -1., -1., -1., -1., -1., -1., -1. ]
      - [ 1., 1., 1., 1., 1., 1., -1., -1., 1., 1., 1., 1., 1., 1., 1.,
          1., 1., 1., -1. ]
      - [ 1., 1., -1., -1., -1., -1., -1., -1., -1., -1., -1., -1., -1.,
          -1., -1., -1., -1., -1., -1. ]
      - [ 1., 1., 1., 1., 1., 1., -1., 1., 1., 1., 1., 1., 1., 1., 1.,
          1., 1., 1., 1. ]
      - [ 1., -1., -1., -1., -1., -1., -1., -1., -1., -1., -1., -1., 1.,
          1., 1., 1., -1., -1., -1. ]
      - [ -1., -1., -1., -1., -1., -1., -1., -1., -1., -1., -1., -1.,
          -1., -1., -1., -1., -1., -1., -1. ]
      - [ 1., 1., -1., -1., -1., -1., -1., -1., 1., -1., -1., 1., 1., 1.,
          1., -1., -1., 1., -1. ]
      - [ -1., -1., -1., -1., -1., -1., -1., 1., 1., -1., -1., -1., -1.,
          1., 1., -1., -1., 1., 1. ]
      - [ 1., 1., 1., 1., 1., 1., -1., -1., 1., 1., 1., 1., 1., 1., 1.,
          1., 1., 1., -1. ]
      - [ 1., -1., -1., -1., -1., 1., 1., 1., 1., 1., 1., 1., 1., 1., 1.,
          1., 1., 1., 1. ]
      - [ 1., 1., 1., 1., 1., 1., -1., -1., -1., 1., 1., -1., 1., 1., 1.,
          1., 1., -1., -1. ]
      - [ 1., 1., 1., 1., 1., 1., -1., -1., 1., 1., 1., 1., 1., 1., 1.,
          1., 1., 1., 1. ]
      - [ 1., 1., 1., 1., 1., 1., 1., 1., 1., 1., 1., 1., 1., 1., 1., 1.,
          1., 1., 1. ]
      - [ 1., 1., 1., 1., 1., 1., -1., -1., -1., 1., 1., -1., -1., 1.,
          1., -1., 1., -1., -1. ]
      - [ 1., 1., 1., 1., 1., 1., -1., -1., -1., 1., 1., -1., 1., 1., 1.,
          1., 1., 1., 1. ]
      - [ 1., -1., -1., -1., -1., -1., -1., -1., -1., -1., -1., -1., -1.,
          -1., -1., -1., -1., -1., -1. ]
      - [ 1., 1., 1., -1., 1., 1., -1., -1., -1., 1., -1., -1., -1., 1.,
          1., 1., 1., 1., -1. ]
      - [ 1., 1., -1., -1., -1., -1., -1., -1., -1., -1., -1., -1., -1.,
          -1., -1., -1., -1., 1., -1. ]
      - [ 1., 1., -1., -1., -1., -1., 1., 1., 1., -1., -1., -1., -1., 1.,
          1., 1., -1., 1., 1. ]
      - [ 1., -1., -1., -1., -1., -1., -1., -1., -1., -1., -1., -1., -1.,
          -1., -1., -1., -1., -1., -1. ]
      - [ 1., 1., 1., -1., 1., 1., -1., -1., -1., 1., -1., -1., -1., 1.,
          1., 1., 1., 1., -1. ]
      - [ 1., 1., 1., 1., 1., 1., -1., -1., -1., 1., 1., -1., 1., 1., 1.,
          1., 1., -1., -1. ]
      - [ -1., -1., -1., -1., -1., -1., -1., -1., -1., -1., -1., -1.,
          -1., -1., -1., -1., -1., -1., -1. ]
      - [ 1., 1., 1., 1., 1., 1., -1., -1., -1., 1., 1., -1., 1., 1., 1.,
          -1., 1., -1., -1. ]
      - [ 1., 1., 1., 1., 1., 1., -1., -1., -1., 1., 1., -1., 1., 1., 1.,
          1., 1., -1., -1. ]
      - [ -1., -1., 1., -1., -1., -1., -1., -1., -1., 1., -1., -1., -1.,
          -1., -1., -1., 1., -1., -1. ]
      - [ 1., 1., 1., -1., 1., 1., 1., -1., -1., 1., 1., -1., -1., 1.,
          1., -1., 1., 1., 1. ]
      - [ 1., 1., 1., 1., 1., 1., -1., -1., -1., 1., 1., -1., 1., 1., 1.,
          1., 1., -1., -1. ]
      - [ -1., -1., -1., -1., -1., -1., -1., -1., 1., -1., -1., -1., 1.,
          1., 1., 1., -1., 1., 1. ]
      - [ 1., -1., 1., -1., 1., 1., -1., -1., -1., 1., 1., -1., -1., 1.,
          1., -1., 1., -1., -1. ]
      - [ -1., -1., -1., -1., -1., -1., -1., -1., -1., -1., -1., -1.,
          -1., -1., -1., -1., -1., -1., -1. ]
      - [ -1., -1., -1., -1., -1., -1., -1., -1., -1., -1., -1., -1.,
          -1., -1., 1., -1., -1., -1., -1. ]
      - [ -1., -1., -1., -1., -1., -1., -1., -1., -1., -1., -1., -1.,
          -1., -1., -1., -1., -1., -1., -1. ]
      - [ -1., -1., -1., -1., -1., -1., -1., -1., -1., -1., -1., -1.,
          -1., -1., -1., -1., -1., -1., -1. ]
      - [ 1., 1., 1., 1., 1., 1., -1., -1., 1., 1., 1., 1., 1., 1., 1.,
          1., 1., 1., 1. ]
      - [ -1., -1., -1., -1., -1., -1., -1., -1., -1., -1., -1., -1.,
          -1., -1., -1., -1., -1., -1., -1. ]
      - [ -1., -1., -1., -1., -1., -1., -1., -1., -1., -1., -1., -1.,
          -1., -1., -1., -1., -1., 1., 1. ]
      - [ -1., -1., -1., -1., -1., -1., -1., -1., -1., -1., -1., -1.,
          -1., -1., -1., -1., -1., -1., -1. ]
      - [ 1., 1., -1., -1., -1., -1., 1., 1., 1., -1., -1., -1., -1., 1.,
          1., 1., -1., 1., 1. ]
      - [ 1., 1., -1., -1., -1., -1., -1., -1., -1., -1., -1., -1., 1.,
          1., 1., 1., -1., 1., 1. ]
      - [ 1., 1., 1., 1., 1., 1., 1., 1., 1., 1., 1., 1., 1., 1., 1.,
          -1., 1., 1., 1. ]
      - [ -1., -1., 1., -1., 1., 1., -1., -1., -1., 1., 1., -1., -1., 1.,
          1., -1., 1., -1., -1. ]
      - [ -1., -1., -1., -1., -1., -1., -1., -1., -1., -1., -1., -1.,
          -1., -1., -1., -1., -1., 1., 1. ]
      - [ -1., -1., -1., -1., -1., -1., -1., -1., -1., -1., -1., -1.,
          -1., -1., -1., -1., -1., 1., 1. ]
      - [ 1., -1., 1., -1., 1., 1., -1., -1., -1., 1., 1., -1., -1., 1.,
          1., -1., 1., -1., -1. ]
      - [ -1., -1., -1., -1., -1., -1., -1., -1., -1., -1., -1., -1.,
          -1., -1., -1., -1., -1., -1., -1. ]
      - [ -1., -1., -1., -1., -1., -1., -1., -1., -1., -1., -1., -1.,
          -1., -1., -1., -1., -1., -1., -1. ]
      - [ -1., -1., -1., -1., -1., -1., -1., -1., -1., -1., -1., -1.,
          -1., -1., -1., -1., -1., -1., -1. ]
      - [ 1., -1., -1., -1., -1., -1., -1., -1., -1., -1., -1., -1., -1.,
          -1., -1., 1., -1., -1., -1. ]
      - [ -1., -1., -1., -1., -1., -1., -1., -1., 1., -1., -1., 1., 1.,
          1., 1., -1., -1., 1., -1. ]
      - [ 1., 1., 1., 1., 1., 1., -1., -1., 1., 1., 1., 1., 1., 1., 1.,
          1., 1., 1., 1. ]
      - [ -1., -1., -1., -1., -1., -1., -1., -1., -1., -1., -1., -1.,
          -1., -1., -1., 1., -1., -1., -1. ]
      - [ -1., -1., -1., -1., -1., -1., -1., -1., -1., -1., -1., -1.,
          -1., -1., -1., 1., -1., -1., -1. ]
      - [ 1., -1., 1., 1., 1., 1., -1., -1., -1., 1., 1., -1., 1., 1.,
          1., 1., 1., 1., 1. ]
      - [ 1., 1., 1., 1., 1., 1., 1., 1., 1., 1., 1., 1., 1., 1., 1., 1.,
          1., 1., 1. ]
      - [ -1., -1., -1., -1., -1., -1., -1., -1., -1., -1., -1., -1.,
          -1., -1., -1., -1., -1., -1., -1. ]
      - [ 1., -1., -1., -1., -1., -1., -1., -1., -1., -1., -1., -1., -1.,
          -1., -1., 1., -1., 1., 1. ]
      - [ 1., -1., -1., -1., -1., -1., -1., -1., -1., -1., -1., -1., -1.,
          1., 1., -1., -1., -1., -1. ]
      - [ -1., -1., 1., 1., 1., 1., -1., -1., 1., 1., 1., 1., 1., 1., 1.,
          1., 1., 1., -1. ]
      - [ -1., -1., -1., -1., -1., -1., -1., -1., -1., -1., -1., -1.,
          -1., -1., -1., -1., -1., -1., -1. ]
      - [ -1., -1., 1., -1., -1., -1., -1., -1., -1., 1., -1., -1., -1.,
          -1., -1., -1., 1., -1., -1. ]
      - [ -1., -1., -1., -1., -1., -1., -1., -1., -1., -1., -1., -1.,
          -1., -1., -1., -1., -1., -1., -1. ]
      - [ 1., -1., 1., -1., 1., 1., -1., -1., -1., 1., 1., -1., -1., 1.,
          1., 1., 1., -1., -1. ]
      - [ -1., -1., -1., -1., -1., -1., -1., -1., -1., -1., -1., -1.,
          -1., -1., -1., -1., -1., 1., -1. ]
      - [ 1., 1., -1., -1., -1., -1., 1., 1., 1., -1., -1., 1., 1., 1.,
          1., 1., -1., 1., 1. ]
      - [ 1., 1., -1., -1., -1., -1., 1., 1., 1., -1., -1., -1., -1., 1.,
          1., 1., -1., 1., 1. ]
      - [ 1., 1., -1., -1., -1., -1., -1., 1., 1., -1., -1., -1., -1.,
          1., 1., -1., -1., 1., 1. ]
      - [ 1., 1., -1., -1., -1., -1., -1., -1., -1., -1., -1., -1., -1.,
          -1., -1., -1., -1., -1., -1. ]
      - [ 1., -1., 1., -1., 1., 1., -1., -1., -1., 1., 1., -1., -1., 1.,
          1., 1., 1., -1., -1. ]
      - [ 1., 1., -1., -1., -1., -1., 1., 1., 1., -1., -1., 1., 1., 1.,
          1., -1., -1., 1., 1. ]
      - [ 1., 1., -1., -1., -1., -1., 1., 1., 1., -1., -1., -1., -1., 1.,
          1., 1., -1., 1., 1. ]
      - [ 1., 1., 1., 1., 1., 1., -1., 1., 1., 1., 1., 1., 1., 1., 1.,
          -1., 1., 1., 1. ]
      - [ 1., 1., 1., 1., 1., 1., 1., 1., 1., 1., 1., 1., 1., 1., 1., 1.,
          1., 1., 1. ]
      - [ 1., 1., 1., 1., 1., 1., 1., 1., 1., 1., 1., 1., 1., 1., 1., 1.,
          1., 1., 1. ]
      - [ 1., -1., -1., -1., -1., -1., -1., -1., -1., -1., -1., -1., -1.,
          1., 1., -1., -1., -1., -1. ]
      - [ 1., 1., 1., 1., 1., 1., -1., -1., -1., 1., 1., -1., -1., 1.,
          1., -1., 1., -1., -1. ]
      - [ 1., 1., 1., 1., 1., 1., -1., -1., 1., 1., 1., 1., 1., 1., 1.,
          1., 1., 1., -1. ]
      - [ -1., -1., -1., -1., -1., -1., -1., -1., -1., -1., -1., -1.,
          -1., -1., -1., -1., -1., -1., -1. ]
      - [ 1., 1., 1., 1., 1., 1., 1., 1., 1., 1., 1., 1., 1., 1., 1., 1.,
          1., 1., 1. ]
      - [ -1., -1., -1., -1., -1., -1., -1., -1., -1., -1., -1., -1.,
          -1., -1., -1., -1., -1., 1., 1. ]
      - [ 1., 1., -1., -1., -1., -1., 1., 1., 1., -1., -1., -1., -1., 1.,
          1., -1., -1., 1., 1. ]
      - [ 1., 1., 1., 1., 1., 1., -1., -1., -1., 1., 1., -1., 1., 1., 1.,
          -1., 1., -1., -1. ]
      - [ 1., -1., -1., -1., -1., -1., 1., 1., 1., -1., -1., -1., -1.,
          1., 1., 1., -1., 1., 1. ]
      - [ 1., -1., -1., -1., -1., -1., 1., 1., 1., -1., -1., -1., -1.,
          1., 1., 1., -1., 1., 1. ]
      - [ 1., 1., 1., -1., 1., 1., -1., -1., -1., 1., 1., -1., -1., 1.,
          1., -1., 1., -1., -1. ]
      - [ 1., 1., -1., -1., -1., -1., -1., -1., 1., -1., -1., 1., 1., 1.,
          1., -1., -1., 1., -1. ]
      - [ 1., -1., -1., -1., -1., -1., 1., 1., 1., -1., -1., -1., -1.,
          1., 1., 1., -1., 1., 1. ]
      - [ 1., 1., 1., 1., 1., 1., 1., 1., 1., 1., 1., 1., 1., 1., 1., 1.,
          1., 1., 1. ]
      - [ 1., 1., 1., 1., 1., 1., -1., -1., -1., 1., 1., -1., 1., 1., 1.,
          1., 1., -1., -1. ]
      - [ 1., 1., -1., -1., -1., -1., 1., 1., 1., -1., -1., 1., 1., 1.,
          1., 1., -1., 1., 1. ]
      - [ 1., 1., -1., -1., -1., -1., 1., 1., 1., -1., -1., -1., -1., 1.,
          1., -1., -1., 1., 1. ]
      - [ 1., 1., -1., -1., -1., -1., 1., 1., 1., -1., -1., -1., -1., 1.,
          1., -1., -1., 1., 1. ]
      - [ 1., 1., 1., 1., 1., 1., 1., 1., 1., 1., 1., 1., 1., 1., 1., 1.,
          1., 1., 1. ]
      - [ -1., -1., -1., -1., -1., -1., -1., -1., -1., -1., -1., -1.,
          -1., -1., -1., 1., -1., -1., -1. ]
      - [ 1., -1., -1., -1., -1., -1., -1., -1., -1., -1., -1., -1., -1.,
          -1., -1., -1., -1., -1., -1. ]
      - [ 1., 1., -1., -1., -1., -1., -1., -1., -1., -1., -1., -1., -1.,
          -1., -1., 1., -1., 1., 1. ]
      - [ -1., -1., -1., -1., -1., -1., -1., -1., -1., -1., -1., -1.,
          -1., -1., -1., -1., -1., -1., -1. ]
      - [ -1., -1., -1., -1., -1., -1., -1., -1., -1., -1., -1., -1.,
          -1., -1., -1., -1., -1., -1., -1. ]
      - [ -1., -1., -1., -1., -1., -1., -1., -1., -1., -1., -1., -1.,
          -1., -1., -1., -1., -1., -1., -1. ]
      - [ -1., -1., -1., -1., -1., -1., -1., -1., -1., -1., -1., -1.,
          -1., -1., -1., -1., -1., 1., 1. ]
      - [ -1., -1., -1., -1., -1., -1., -1., -1., -1., -1., -1., -1.,
          -1., -1., -1., -1., -1., -1., -1. ]
      - [ -1., -1., -1., -1., -1., -1., -1., -1., -1., -1., -1., -1.,
          -1., -1., -1., -1., -1., -1., -1. ]
      - [ -1., -1., -1., -1., -1., -1., 1., -1., -1., -1., -1., -1., -1.,
          -1., -1., 1., -1., 1., 1. ]
      - [ -1., -1., -1., -1., -1., -1., -1., -1., -1., -1., -1., -1.,
          -1., -1., -1., -1., -1., -1., -1. ]
      - [ 1., 1., -1., -1., -1., -1., -1., -1., -1., -1., -1., -1., -1.,
          1., 1., 1., -1., -1., -1. ]
      - [ -1., -1., -1., -1., -1., 1., -1., -1., -1., 1., 1., -1., 1.,
          1., 1., -1., 1., -1., -1. ]
      - [ 1., -1., 1., -1., 1., 1., -1., -1., -1., 1., 1., -1., -1., 1.,
          1., -1., 1., 1., 1. ]
      - [ -1., -1., -1., -1., -1., -1., -1., -1., -1., -1., -1., -1.,
          -1., -1., 1., -1., -1., -1., -1. ]
      - [ 1., 1., 1., 1., 1., 1., 1., 1., 1., 1., 1., 1., 1., 1., 1., 1.,
          1., 1., 1. ]
      - [ -1., -1., -1., -1., -1., -1., -1., -1., -1., -1., -1., -1.,
          -1., -1., -1., -1., -1., -1., -1. ]
      - [ 1., -1., 1., -1., -1., -1., -1., -1., -1., 1., -1., -1., -1.,
          -1., -1., 1., 1., 1., 1. ]
      - [ 1., 1., -1., -1., -1., -1., -1., 1., 1., -1., -1., 1., 1., 1.,
          1., 1., -1., 1., 1. ]
      - [ -1., -1., -1., -1., -1., -1., 1., -1., -1., -1., -1., -1., -1.,
          -1., -1., 1., -1., 1., 1. ]
      - [ 1., 1., -1., -1., -1., -1., 1., -1., -1., -1., -1., -1., -1.,
          -1., -1., 1., -1., 1., 1. ]
      - [ 1., 1., -1., -1., -1., -1., 1., -1., -1., -1., -1., -1., -1.,
          -1., -1., 1., -1., 1., 1. ]
      - [ 1., 1., -1., -1., -1., -1., -1., -1., 1., -1., -1., -1., -1.,
          1., 1., 1., -1., 1., -1. ]
      - [ -1., -1., 1., 1., 1., 1., -1., -1., -1., 1., 1., -1., 1., 1.,
          1., 1., 1., -1., -1. ]
      - [ 1., 1., 1., 1., 1., 1., -1., -1., 1., 1., 1., 1., 1., 1., 1.,
          1., 1., 1., 1. ]
      - [ -1., -1., -1., -1., -1., -1., -1., -1., -1., -1., -1., -1.,
          -1., -1., -1., -1., -1., -1., -1. ]
      - [ 1., 1., -1., -1., -1., -1., -1., -1., -1., -1., -1., -1., -1.,
          -1., -1., 1., -1., -1., -1. ]
      - [ 1., 1., 1., 1., 1., 1., -1., -1., -1., 1., 1., -1., -1., 1.,
          1., -1., 1., -1., -1. ]
      - [ 1., 1., -1., -1., -1., -1., 1., 1., 1., -1., -1., -1., -1., 1.,
          1., 1., -1., 1., 1. ]
      - [ -1., -1., -1., -1., -1., -1., -1., -1., -1., -1., -1., -1.,
          -1., -1., -1., -1., -1., 1., 1. ]
      - [ -1., -1., -1., -1., -1., -1., -1., -1., -1., -1., -1., -1.,
          -1., -1., -1., -1., -1., -1., -1. ]
      - [ -1., -1., -1., -1., -1., -1., 1., -1., -1., -1., -1., -1., -1.,
          -1., -1., 1., -1., 1., 1. ]
      - [ 1., 1., -1., -1., -1., -1., 1., 1., 1., -1., -1., -1., -1., 1.,
          1., -1., -1., 1., 1. ]
      - [ -1., -1., -1., -1., -1., -1., 1., -1., -1., -1., -1., -1., -1.,
          -1., -1., -1., -1., 1., 1. ]
      - [ 1., 1., -1., -1., -1., -1., -1., -1., -1., 1., -1., -1., -1.,
          -1., -1., 1., 1., -1., -1. ]
      - [ -1., -1., -1., -1., -1., -1., -1., -1., -1., -1., -1., -1.,
          -1., -1., -1., -1., -1., -1., -1. ]
      - [ 1., 1., -1., -1., -1., -1., 1., 1., 1., -1., -1., 1., 1., 1.,
          1., 1., -1., 1., 1. ]
      - [ 1., 1., 1., 1., 1., 1., -1., -1., 1., 1., 1., 1., 1., 1., 1.,
          1., 1., 1., 1. ]
      - [ -1., -1., -1., -1., -1., -1., -1., -1., 1., -1., -1., -1., 1.,
          1., 1., -1., -1., 1., 1. ]
      - [ -1., -1., -1., -1., -1., -1., -1., -1., -1., -1., -1., -1.,
          -1., -1., -1., 1., -1., 1., 1. ]
      - [ -1., -1., -1., -1., -1., -1., -1., -1., -1., -1., -1., -1.,
          -1., -1., -1., -1., -1., 1., 1. ]
      - [ 1., -1., -1., -1., -1., -1., -1., -1., -1., -1., -1., -1., -1.,
          -1., -1., -1., -1., 1., 1. ]
   decision_functions:
      -
         sv_count: 728
         rho: 0.1807234905140984
         alpha: [ 1., 1., 1., 1., 1., 1., 1., 1., 1., 1., 1., 1., 1., 1.,
             1., 0.4555489875955066, 1., 1., 1., 1., 0.9008413856266564,
             1., 0.7342562062999501, 1., 1., 1., 1., 1., 1., 1.,
             0.9275943523404194, 1., 1., 1., 1., 0.5500902850262179, 1.,
             1., 1., 0.6342998160357566, 1., 1., 1., 1., 1., 1., 1., 1.,
             0.9676148636953762, 1., 1., 1., 1., 1., 1., 1., 1.,
             0.9036693847652736, 1., 1., 1., 1., 1., 0.8146488785730036,
             1., 1., 1., 1., 1., 1., 1., 1., 1., 1., 1., 1., 1., 1., 1.,
             1., 1., 1., 1., 1., 1., 1., 1., 1., 1., 1., 1., 1., 1., 1.,
             0.3141505942113119, 1., 1., 1., 1., 1., 1., 1., 1., 1., 1.,
             1., 1., 1., 1., 1., 1., 1., 1., 1., 1., 1., 1., 1., 1., 1.,
             1., 1., 0.2240024064764253, 1., 1., 1., 1., 1., 1., 1., 1.,
             1., 1., 1., 1., 1., 1., 1., 1., 1., 1., 1., 1.,
             0.1876288629223435, 1., 1., 1., 1., 1., 1., 1., 1., 1., 1.,
             1., 1., 0.4686311000142122, 1., 1., 1., 1., 1., 1., 1., 1.,
             1., 1., 1., 1., 1., 1., 1., 1., 1., 1., 1., 1., 1., 1., 1.,
             1., 1., 1., 1., 1., 1., 1., 1., 1., 1., 0.9667052733470980,
             1., 1., 1., 1., 1., 1., 1., 1., 1., 1., 1., 1., 1., 1., 1.,
             1., 1., 1., 1., 1., 1., 1., 1., 1., 1., 1., 1., 1., 1., 1.,
             1., 1., 1., 1., 1., 1., 1., 1., 1., 1., 1., 1., 1., 1., 1.,
             1., 1., 1., 1., 0.3942484244534507, 1., 1.,
             0.6538949622226150, 1., 1., 1., 1., 1., 1., 1., 1.,
             0.6557119993178896, 0.0971129150601607, 1., 1., 1., 1., 1.,
             1., 1., 1., 1., 1., 1., 1., 1., 1., 1., 1., 1., 1., 1., 1.,
             1., 1., 1., 1., 1., 1., 1., 1., 1., 1., 1., 1., 1., 1., 1.,
             1., 1., 1., 1., 1., 1., 1., 1., 1., 1., 1., 1., 1., 1., 1.,
             0.3567352801216066, 1., 1., 1., 1., 1., 1., 1., 1., 1., 1.,
             1., 1., 1., 1., 1., 1., 0.4793980624410140, 1.,
             0.5022269616666569, 1., 1., 1., 1., 1., 1.,
             0.4104514178421844, 0.5837179140612754, 1., 1., 1., 1., 1.,
             1., 1., 1., 1., 1., 1., 0.4443352755604186,
             0.4848692780751782, 1., 1., 1., 1., 1., 0.5275641387769615,
             1., 1., 1., 1., 1., 0.6745508440373089, 1., 1., 1., 1., 1.,
             -1., -0.2999325865195083, -1., -1., -1.,
             -0.5890863098372523, -1., -1., -1., -1., -1., -1.,
             -0.0862726629107651, -1., -1., -1., -1., -1., -1., -1., -1.,
             -0.5423998599551544, -1., -1., -0.8966713880677165, -1.,
             -1., -1., -1., -1., -1., -1., -0.7207427992826853, -1., -1.,
             -1., -1., -1., -1., -1., -0.8331436675582852, -1., -1., -1.,
             -1., -1., -1., -1., -1., -1., -1., -1., -1., -1., -1., -1.,
             -1., -1., -0.9893113709758689, -1., -0.9769616283753931,
             -1., -1., -1., -1., -1., -0.2535321229460752, -1.,
             -0.8492425297584605, -1., -1., -1., -0.5634592151622306,
             -1., -0.7949996788864447, -1., -1., -1., -1., -1., -1., -1.,
             -0.4144405366611374, -1., -1., -1., -1., -1., -1., -1., -1.,
             -0.9761371311629580, -1., -1., -1., -1., -1., -1., -1., -1.,
             -1., -0.9609941019165833, -1., -1., -1., -1.,
             -0.5163348871422361, -1., -1., -1., -1., -1., -1.,
             -0.9855542380280797, -1., -0.0486131506546537, -1., -1.,
             -1., -1., -1., -1., -1., -0.5254517047720552, -1., -1., -1.,
             -1., -1., -1., -0.1546025357335145, -1., -1., -1.,
             -0.0476027549015870, -1., -1., -1., -1., -1.,
             -0.8288536395114411, -1., -1., -1., -1., -1., -1., -1., -1.,
             -1., -1., -1., -0.3257704110572670, -1., -1., -1.,
             -0.2994309938415176, -1., -1., -1., -1., -1., -1., -1., -1.,
             -1., -1., -1., -1., -1., -1., -1., -1., -1.,
             -0.9657472373235333, -1., -1., -1., -1., -1., -1., -1., -1.,
             -1., -1., -1., -1., -1., -1., -1., -1., -1., -1.,
             -0.1035717060575043, -1., -1., -1., -1., -1., -1.,
             -0.5656504324977847, -1., -1., -1., -1.,
             -0.4505093656450566, -1., -1., -1., -1., -1., -1., -1.,
             -0.8785163961252885, -1., -1., -1., -1., -1., -1.,
             -0.9248017092671763, -1., -1., -1., -1., -1., -1., -1., -1.,
             -1., -1., -1., -1., -1., -1., -1., -1., -1., -1., -1., -1.,
             -1., -1., -1., -1., -1., -1., -1., -1., -1., -1., -1., -1.,
             -1., -1., -1., -1., -1., -1., -1., -1., -1., -1., -1., -1.,
             -1., -1., -1., -1., -1., -1., -1., -1., -1., -1.,
             -0.9070709331054653, -1., -1., -1., -1., -1., -1., -1., -1.,
             -1., -1., -1., -1., -1., -0.8549027434027893, -1., -1., -1.,
             -1., -1., -1., -1., -1., -1., -0.7563757066046991, -1., -1.,
             -1., -1., -1., -1., -1., -1., -1., -1., -1., -1.,
             -0.8591995563103767, -1., -1., -1., -1., -1., -1.,
             -0.3011891224618909, -1., -1., -1., -1., -1., -1., -1., -1.,
             -1., -1., -1., -1., -1., -1., -1., -1., -1., -1., -1., -1.,
             -1., -1., -1., -1., -1., -1., -1., -0.2421823358567918, -1.,
             -1., -1., -1., -1., -1., -1., -1., -1., -1., -1., -1., -1.,
             -0.4300502761655071, -1., -1., -0.5951904441235382, -1. ]
         index: [ 0, 1, 2, 3, 4, 5, 6, 7, 8, 9, 10, 11, 12, 13, 14, 15,
             16, 17, 18, 19, 20, 21, 22, 23, 24, 25, 26, 27, 28, 29, 30,
             31, 32, 33, 34, 35, 36, 37, 38, 39, 40, 41, 42, 43, 44, 45,
             46, 47, 48, 49, 50, 51, 52, 53, 54, 55, 56, 57, 58, 59, 60,
             61, 62, 63, 64, 65, 66, 67, 68, 69, 70, 71, 72, 73, 74, 75,
             76, 77, 78, 79, 80, 81, 82, 83, 84, 85, 86, 87, 88, 89, 90,
             91, 92, 93, 94, 95, 96, 97, 98, 99, 100, 101, 102, 103, 104,
             105, 106, 107, 108, 109, 110, 111, 112, 113, 114, 115, 116,
             117, 118, 119, 120, 121, 122, 123, 124, 125, 126, 127, 128,
             129, 130, 131, 132, 133, 134, 135, 136, 137, 138, 139, 140,
             141, 142, 143, 144, 145, 146, 147, 148, 149, 150, 151, 152,
             153, 154, 155, 156, 157, 158, 159, 160, 161, 162, 163, 164,
             165, 166, 167, 168, 169, 170, 171, 172, 173, 174, 175, 176,
             177, 178, 179, 180, 181, 182, 183, 184, 185, 186, 187, 188,
             189, 190, 191, 192, 193, 194, 195, 196, 197, 198, 199, 200,
             201, 202, 203, 204, 205, 206, 207, 208, 209, 210, 211, 212,
             213, 214, 215, 216, 217, 218, 219, 220, 221, 222, 223, 224,
             225, 226, 227, 228, 229, 230, 231, 232, 233, 234, 235, 236,
             237, 238, 239, 240, 241, 242, 243, 244, 245, 246, 247, 248,
             249, 250, 251, 252, 253, 254, 255, 256, 257, 258, 259, 260,
             261, 262, 263, 264, 265, 266, 267, 268, 269, 270, 271, 272,
             273, 274, 275, 276, 277, 278, 279, 280, 281, 282, 283, 284,
             285, 286, 287, 288, 289, 290, 291, 292, 293, 294, 295, 296,
             297, 298, 299, 300, 301, 302, 303, 304, 305, 306, 307, 308,
             309, 310, 311, 312, 313, 314, 315, 316, 317, 318, 319, 320,
             321, 322, 323, 324, 325, 326, 327, 328, 329, 330, 331, 332,
             333, 334, 335, 336, 337, 338, 339, 340, 341, 342, 343, 344,
             345, 346, 347, 348, 349, 350, 351, 352, 353, 354, 355, 356,
             357, 358, 359, 360, 361, 362, 363, 364, 365, 366, 367, 368,
             369, 370, 371, 372, 373, 374, 375, 376, 377, 378, 379, 380,
             381, 382, 383, 384, 385, 386, 387, 388, 389, 390, 391, 392,
             393, 394, 395, 396, 397, 398, 399, 400, 401, 402, 403, 404,
             405, 406, 407, 408, 409, 410, 411, 412, 413, 414, 415, 416,
             417, 418, 419, 420, 421, 422, 423, 424, 425, 426, 427, 428,
             429, 430, 431, 432, 433, 434, 435, 436, 437, 438, 439, 440,
             441, 442, 443, 444, 445, 446, 447, 448, 449, 450, 451, 452,
             453, 454, 455, 456, 457, 458, 459, 460, 461, 462, 463, 464,
             465, 466, 467, 468, 469, 470, 471, 472, 473, 474, 475, 476,
             477, 478, 479, 480, 481, 482, 483, 484, 485, 486, 487, 488,
             489, 490, 491, 492, 493, 494, 495, 496, 497, 498, 499, 500,
             501, 502, 503, 504, 505, 506, 507, 508, 509, 510, 511, 512,
             513, 514, 515, 516, 517, 518, 519, 520, 521, 522, 523, 524,
             525, 526, 527, 528, 529, 530, 531, 532, 533, 534, 535, 536,
             537, 538, 539, 540, 541, 542, 543, 544, 545, 546, 547, 548,
             549, 550, 551, 552, 553, 554, 555, 556, 557, 558, 559, 560,
             561, 562, 563, 564, 565, 566, 567, 568, 569, 570, 571, 572,
             573, 574, 575, 576, 577, 578, 579, 580, 581, 582, 583, 584,
             585, 586, 587, 588, 589, 590, 591, 592, 593, 594, 595, 596,
             597, 598, 599, 600, 601, 602, 603, 604, 605, 606, 607, 608,
             609, 610, 611, 612, 613, 614, 615, 616, 617, 618, 619, 620,
             621, 622, 623, 624, 625, 626, 627, 628, 629, 630, 631, 632,
             633, 634, 635, 636, 637, 638, 639, 640, 641, 642, 643, 644,
             645, 646, 647, 648, 649, 650, 651, 652, 653, 654, 655, 656,
             657, 658, 659, 660, 661, 662, 663, 664, 665, 666, 667, 668,
             669, 670, 671, 672, 673, 674, 675, 676, 677, 678, 679, 680,
             681, 682, 683, 684, 685, 686, 687, 688, 689, 690, 691, 692,
             693, 694, 695, 696, 697, 698, 699, 700, 701, 702, 703, 704,
             705, 706, 707, 708, 709, 710, 711, 712, 713, 714, 715, 716,
             717, 718, 719, 720, 721, 722, 723, 724, 725, 726, 727 ]
